svm_type c_svc
kernel_type rbf
gamma 1
nr_class 2
total_sv 5646
rho 0.744235
label 1 0
probA -5.49441
probB -0.47255
nr_sv 1175 4471
SV
0.4640530863163979 1:6 2:16 3:0.9973 4:0.9999 5:50 6:50 7:18.6161 8:18.6101 
1 1:6 2:12 3:0.9746 4:0.9995 5:50 6:50 7:18.5363 8:18.4055 
0.7404562484287005 1:4 2:12 3:0.9959 4:0.9977 5:50 6:50 7:16.3573 8:16.3474 
0.2721042242671407 1:14 2:32 3:0.9299 4:0.9997 5:50 6:50 7:25.1078 8:25.0565 
1 1:12 2:30 3:0.9638 4:0.9995 5:50 6:50 7:27.4481 8:27.4148 
0.744713807563742 1:10 2:14 3:0.8034 4:0.8034 5:18.188 6:50 7:14.0674 8:8.1687 
0.3084336017616285 1:6 2:12 3:0.918 4:0.9936 5:50 6:50 7:18.3645 8:15.7328 
1 1:8 2:17 3:0.9131 4:0.9949 5:50 6:50 7:20.6732 8:18.811 
0.3705855781642857 1:6 2:15 3:0.9919 4:1 5:50 6:50 7:18.5928 8:18.5855 
1 1:10 2:26 3:0.9295 4:0.9979 5:50 6:50 7:25.2092 8:25.0869 
1 1:8 2:20 3:0.9457 4:0.997 5:50 6:50 7:19.825 8:19.1185 
0.7317575455978249 1:7 2:13 3:0.9182 4:0.994 5:50 6:50 7:20.4886 8:16.5736 
0.7342427992057528 1:5 2:8 3:0.9747 4:0.9983 5:50 6:50 7:13.9576 8:13.8291 
1 1:17 2:38 3:0.9391 4:0.9972 5:50 6:50 7:29.4417 8:29.332 
0.4230757879334034 1:8 2:18 3:0.9779 4:0.9999 5:50 6:50 7:20.8025 8:20.7166 
0.6874028368774963 1:6 2:11 3:0.9923 4:0.9999 5:50 6:50 7:14.0833 8:14.073 
1 1:5 2:8 3:0.9291 4:0.9859 5:50 6:50 7:13.0326 8:7.8292 
1 1:6 2:8 3:0.9535 4:0.999 5:50 6:50 7:15.0528 8:13.9384 
0.304962614517518 1:8 2:21 3:0.954 4:0.9992 5:50 6:50 7:20.5797 8:20.3953 
0.6370661514081262 1:6 2:12 3:0.9626 4:0.9997 5:50 6:50 7:13.9285 8:13.7287 
1 1:3 2:4 3:0.9937 4:0.9968 5:50 6:50 7:11.3535 8:9.2242 
0.2236781956366155 1:10 2:18 3:0.8468 4:0.9549 5:50 6:50 7:20.0506 8:15.1325 
0.4614278714092503 1:14 2:24 3:0.8719 4:0.9913 5:50 6:50 7:22.8431 8:21.7638 
1 1:9 2:17 3:0.928 4:0.999 5:50 6:50 7:18.3498 8:17.5645 
0.431995207930382 1:6 2:8 3:0.8855 4:0.9879 5:50 6:50 7:13.9761 8:10.6679 
0.7440112600898373 1:20 2:34 3:0.7823 4:0.946 5:50 6:50 7:24.995 8:20.1855 
0.2665692164830575 1:6 2:11 3:0.9388 4:0.9914 5:50 6:50 7:13.7635 8:12.6214 
0.2615568942593812 1:6 2:9 3:0.8875 4:0.9563 5:50 6:50 7:12.2504 8:8.4305 
0.6057175102931893 1:7 2:13 3:0.951 4:0.9981 5:50 6:50 7:18.0762 8:17.3384 
0.3498331423797025 1:8 2:17 3:0.8724 4:0.9898 5:50 6:50 7:19.5333 8:15.1297 
0.5801569514504102 1:5 2:7 3:0.9646 4:0.9982 5:50 6:50 7:13.2835 8:11.7478 
0.319312970212205 1:10 2:27 3:0.9457 4:1 5:50 6:50 7:23.0308 8:22.9775 
0.7442933905494389 1:11 2:17 3:0.9127 4:0.9697 5:19.4903 6:50 7:12.4871 8:9.2243 
0.7370753113904114 1:10 2:12 3:0.8989 4:0.9827 5:50 6:50 7:13.9549 8:13.5086 
0.7439671788305686 1:5 2:8 3:0.8165 4:0.8567 5:13.5762 6:50 7:13.1988 8:8.4597 
1 1:15 2:29 3:0.7388 4:0.957 5:50 6:50 7:25.6228 8:14.6899 
0.7447465076162347 1:9 2:12 3:0.8793 4:0.9738 5:50 6:50 7:14.2876 8:8.64 
0.2230849960178176 1:7 2:13 3:0.8744 4:0.9749 5:50 6:50 7:14.901 8:13.8114 
0.06585601314077244 1:8 2:13 3:0.918 4:0.9954 5:50 6:50 7:15.8691 8:14.1585 
1 1:14 2:33 3:0.9509 4:0.986 5:50 6:50 7:24.2383 8:22.9756 
1 1:9 2:16 3:0.7858 4:0.9752 5:50 6:50 7:16.1244 8:10.6877 
0.74287119079279 1:17 2:37 3:0.8411 4:0.9901 5:50 6:50 7:25.924 8:21.6295 
0.7439819372783219 1:7 2:14 3:0.7745 4:0.9266 5:30.6637 6:50 7:13.6048 8:7.5216 
0.2874790858152007 1:10 2:21 3:0.9316 4:0.9991 5:50 6:50 7:22.9248 8:22.3192 
0.7439536098634179 1:13 2:17 3:0.7557 4:0.9643 5:50 6:50 7:21.4778 8:7.7371 
0.2486545099102323 1:8 2:19 3:0.9114 4:0.9724 5:50 6:50 7:18.9299 8:16.7831 
0.8964393363418366 1:5 2:6 3:0.9664 4:0.9993 5:50 6:50 7:13.627 8:12.8292 
0.1305984444325574 1:7 2:11 3:0.8031 4:0.9219 5:50 6:50 7:14.2788 8:13.2359 
1 1:14 2:25 3:0.8789 4:0.9991 5:50 6:50 7:22.0997 8:20.3204 
1 1:4 2:7 3:0.9957 4:0.9971 5:50 6:50 7:13.3441 8:9.2582 
1 1:19 2:37 3:0.8045 4:0.9702 5:50 6:50 7:25.0202 8:22.9494 
0.7439939055835662 1:9 2:16 3:0.9284 4:0.9886 5:23.5212 6:50 7:17.3145 8:12.2158 
0.7432235329786526 1:7 2:12 3:0.8166 4:0.9069 5:50 6:50 7:20.479 8:20.1349 
0.3724004747761854 1:6 2:14 3:0.982 4:0.9952 5:50 6:50 7:18.5734 8:17.651 
0.7399577161635664 1:9 2:15 3:0.7974 4:0.9446 5:50 6:50 7:17.8048 8:8.7891 
1 1:9 2:17 3:0.928 4:0.999 5:50 6:50 7:18.3498 8:17.5645 
1 1:7 2:12 3:0.8166 4:0.9069 5:50 6:50 7:20.479 8:20.1349 
1 1:10 2:14 3:0.8034 4:0.8034 5:18.188 6:50 7:14.0674 8:8.1687 
0.719800268427771 1:7 2:10 3:0.9068 4:0.9819 5:50 6:50 7:18.051 8:14.549 
0.8704256124673235 1:6 2:10 3:0.862 4:0.9895 5:50 6:50 7:14.9173 8:12.5908 
0.4717226629608977 1:6 2:12 3:0.9508 4:0.9888 5:50 6:50 7:15.8352 8:13.6793 
0.3487710094444946 1:4 2:6 3:0.9394 4:0.963 5:50 6:50 7:11.7787 8:9.625 
0.9991680720978615 1:9 2:15 3:0.7974 4:0.9446 5:50 6:50 7:17.8048 8:8.7891 
0.3732383576274117 1:5 2:9 3:0.9728 4:0.9982 5:50 6:50 7:16.3467 8:16.2588 
0.1353187222666428 1:3 2:5 3:0.9985 4:0.9985 5:50 6:50 7:9.4732 8:9.4575 
0.03755096991228772 1:6 2:16 3:0.9816 4:0.9996 5:50 6:50 7:20.776 8:20.757 
0.04061047015885724 1:3 2:4 3:0.9934 4:0.9991 5:50 6:50 7:9.4635 8:8.1851 
0.7438973368260728 1:13 2:17 3:0.6302 4:0.7145 5:50 6:50 7:17.5998 8:11.6779 
0.0199846073604145 1:5 2:9 3:0.9213 4:0.9925 5:50 6:50 7:12.8524 8:9.3739 
0.6271562585103175 1:7 2:17 3:0.9918 4:1 5:50 6:50 7:16.3667 8:16.3512 
0.5815036084075649 1:9 2:25 3:0.9798 4:1 5:50 6:50 7:25.2404 8:25.2095 
0.7096356330006568 1:9 2:17 3:0.9005 4:0.9827 5:50 6:50 7:22.7632 8:21.8669 
0.7007976356549427 1:8 2:13 3:0.9691 4:0.9966 5:50 6:50 7:18.5619 8:18.1123 
1 1:6 2:11 3:0.9388 4:0.9914 5:50 6:50 7:13.7635 8:12.6214 
0.742593399306301 1:10 2:13 3:0.8527 4:0.9578 5:50 6:50 7:16.9376 8:11.131 
1 1:7 2:14 3:0.7745 4:0.9266 5:30.6637 6:50 7:13.6048 8:7.5216 
1 1:10 2:12 3:0.8989 4:0.9827 5:50 6:50 7:13.9549 8:13.5086 
0.7428510717829914 1:18 2:43 3:0.8137 4:0.9958 5:50 6:50 7:29.2048 8:28.5499 
0.743983120662377 1:12 2:27 3:0.7907 4:0.9732 5:41.2215 6:50 7:21.6943 8:13.8827 
0.9926958310762969 1:5 2:7 3:0.9171 4:0.9934 5:50 6:50 7:12.0325 8:10.1545 
0.2583882064669583 1:6 2:10 3:0.8956 4:0.9809 5:50 6:50 7:15.9066 8:10.3213 
0.2196986758778123 1:6 2:20 3:0.9917 4:0.9967 5:50 6:50 7:20.8231 8:20.8124 
0.4749727662784399 1:6 2:15 3:0.846 4:0.9788 5:50 6:50 7:17.5364 8:13.3715 
0.7439518920651063 1:25 2:37 3:0.6922 4:0.9439 5:50 6:50 7:13.7727 8:7.1551 
0.1468773288311682 1:7 2:20 3:0.9205 4:0.9975 5:50 6:50 7:20.6109 8:18.5977 
0.6438005573869824 1:8 2:16 3:0.7768 4:0.9706 5:50 6:50 7:12.0867 8:10.0219 
0.3865839895878623 1:5 2:10 3:0.9969 4:1 5:50 6:50 7:14.0912 8:14.0864 
0.7742649376312061 1:5 2:9 3:0.878 4:0.947 5:50 6:50 7:13.5748 8:3.9072 
1 1:18 2:43 3:0.8137 4:0.9958 5:50 6:50 7:29.2048 8:28.5499 
0.2140872724979607 1:7 2:13 3:0.8503 4:0.966 5:50 6:50 7:15.3531 8:11.7369 
0.04626100950379247 1:7 2:11 3:0.9255 4:0.9907 5:50 6:50 7:15.9819 8:13.7581 
0.7439473803398429 1:16 2:27 3:0.7581 4:0.9559 5:22.5114 6:50 7:22.1597 8:11.5721 
0.8269052172003863 1:8 2:19 3:0.9401 4:0.9998 5:50 6:50 7:18.1826 8:17.7615 
1 1:3 2:4 3:0.9934 4:0.9991 5:50 6:50 7:9.4635 8:8.1851 
0.4034891697125362 1:10 2:20 3:0.9354 4:0.9991 5:50 6:50 7:18.5418 8:18.2012 
0.7937522195242015 1:5 2:9 3:0.8514 4:0.9972 5:50 6:50 7:11.1133 8:10.511 
0.08542820255730516 1:8 2:19 3:0.8348 4:0.9668 5:50 6:50 7:20.4706 8:18.0881 
0.7303899682102151 1:5 2:8 3:0.9172 4:0.9937 5:50 6:50 7:13.4118 8:11.0924 
0.3858351549965245 1:6 2:11 3:0.9093 4:0.9982 5:50 6:50 7:16.2766 8:13.7804 
0.3370203754171042 1:4 2:6 3:0.9978 4:0.9999 5:50 6:50 7:9.2837 8:9.2625 
0.7439700225755102 1:7 2:8 3:0.6594 4:0.6801 5:33.158 6:50 7:9.1304 8:8.2629 
0.2016893822363948 1:11 2:19 3:0.9306 4:0.995 5:50 6:50 7:20.5639 8:19.5095 
0.7322967431682932 1:15 2:30 3:0.8154 4:0.9765 5:50 6:50 7:24.1509 8:21.5361 
0.1626719699912929 1:4 2:6 3:0.97 4:0.9958 5:50 6:50 7:12.6196 8:8.6727 
0.7233275052945589 1:8 2:9 3:0.7106 4:0.7502 5:50 6:50 7:16.3842 8:13.8799 
0.3125628737447256 1:9 2:29 3:0.9926 4:1 5:50 6:50 7:23.0402 8:23.0259 
0.9881402144008875 1:8 2:19 3:0.8348 4:0.9668 5:50 6:50 7:20.4706 8:18.0881 
0.1225698436405456 1:6 2:9 3:0.9347 4:0.9616 5:50 6:50 7:16.0526 8:15.7042 
0.9895239483489048 1:4 2:8 3:0.9686 4:0.9872 5:50 6:50 7:11.5668 8:10.3183 
0.6543570208694953 1:5 2:14 3:0.9985 4:1 5:50 6:50 7:16.3251 8:16.3216 
0.741297493911008 1:18 2:39 3:0.7859 4:0.99 5:50 6:50 7:23.3111 8:20.1127 
0.9980713742925791 1:10 2:18 3:0.8468 4:0.9549 5:50 6:50 7:20.0506 8:15.1325 
0.6585130443549121 1:7 2:18 3:0.8767 4:0.9946 5:50 6:50 7:19.6526 8:17.0476 
1 1:9 2:17 3:0.9005 4:0.9827 5:50 6:50 7:22.7632 8:21.8669 
0.5299128824595365 1:6 2:9 3:0.9129 4:0.9511 5:50 6:50 7:16.1557 8:10.2909 
0.3239857334820994 1:9 2:15 3:0.9188 4:0.9923 5:50 6:50 7:19.6008 8:17.0595 
0.743995624984929 1:17 2:20 3:0.8113 4:0.9564 5:50 6:50 7:19.4747 8:13.0345 
1 1:20 2:34 3:0.7823 4:0.946 5:50 6:50 7:24.995 8:20.1855 
0.9993125760272011 1:15 2:30 3:0.8154 4:0.9765 5:50 6:50 7:24.1509 8:21.5361 
0.1664716901682379 1:6 2:10 3:0.901 4:0.9878 5:50 6:50 7:14.2021 8:10.8555 
0.5153545498967475 1:5 2:12 3:0.9908 4:1 5:50 6:50 7:14.1017 8:14.097 
0.4136991668073156 1:3 2:6 3:0.9973 4:0.9973 5:50 6:50 7:11.7948 8:11.7893 
0.08133294369055183 1:6 2:11 3:0.9338 4:0.9994 5:50 6:50 7:14.9181 8:13.7905 
0.7350188879320387 1:19 2:37 3:0.79 4:0.9972 5:50 6:50 7:26.8427 8:24.0675 
0.947731991528087 1:10 2:16 3:0.9345 4:0.9958 5:50 6:50 7:18.4498 8:16.7173 
0.7459257496777249 1:6 2:11 3:0.8873 4:0.9805 5:32.4934 6:50 7:9.7515 8:5.0373 
0.5715903474537507 1:9 2:19 3:0.8604 4:0.9899 5:50 6:50 7:15.7247 8:12.9492 
0.5248691216215353 1:8 2:16 3:0.9895 4:0.9983 5:50 6:50 7:18.5683 8:18.5546 
1 1:17 2:20 3:0.8113 4:0.9564 5:50 6:50 7:19.4747 8:13.0345 
0.4695970481864265 1:7 2:11 3:0.8951 4:0.9928 5:50 6:50 7:16.1929 8:12.1663 
1 1:7 2:8 3:0.6594 4:0.6801 5:33.158 6:50 7:9.1304 8:8.2629 
0.09252510324638062 1:9 2:23 3:0.9041 4:0.9998 5:50 6:50 7:22.7817 8:22.4834 
0.988876576972519 1:5 2:9 3:0.878 4:0.947 5:50 6:50 7:13.5748 8:3.9072 
0.9772703542322909 1:9 2:29 3:0.9926 4:1 5:50 6:50 7:23.0402 8:23.0259 
0.8902089576777319 1:6 2:18 3:0.9462 4:0.9864 5:50 6:50 7:16.351 8:16.3222 
0.6424429790444328 1:8 2:13 3:0.8685 4:0.9362 5:50 6:50 7:16.1116 8:15.2257 
0.4346786413639241 1:7 2:16 3:0.9499 4:0.9943 5:50 6:50 7:14.4505 8:12.5384 
1 1:6 2:9 3:0.9347 4:0.9616 5:50 6:50 7:16.0526 8:15.7042 
0.828904125118711 1:7 2:13 3:0.938 4:0.995 5:50 6:50 7:17.605 8:15.9898 
1 1:16 2:27 3:0.7581 4:0.9559 5:22.5114 6:50 7:22.1597 8:11.5721 
0.7039718930713708 1:6 2:10 3:0.8178 4:0.9515 5:50 6:50 7:14.5465 8:6.7871 
0.9881130547638335 1:6 2:9 3:0.9654 4:0.9816 5:50 6:50 7:15.7961 8:12.6794 
0.3999852354442925 1:4 2:5 3:0.9823 4:0.9998 5:50 6:50 7:10.8786 8:8.5493 
0.4366522501991559 1:13 2:29 3:0.942 4:0.9995 5:50 6:50 7:24.9803 8:24.9002 
0.7657080746653547 1:6 2:13 3:0.897 4:0.9741 5:50 6:50 7:16.0432 8:12.2674 
0.7271248663574361 1:13 2:29 3:0.792 4:0.9592 5:50 6:50 7:23.5955 8:17.5538 
0.7439656484990425 1:5 2:9 3:0.9601 4:0.9958 5:23.7262 6:50 7:10.0721 8:9.0158 
0.1331455882527299 1:6 2:12 3:0.9127 4:0.9975 5:50 6:50 7:15.9146 8:14.9001 
0.5981063867563072 1:9 2:16 3:0.8852 4:0.9936 5:50 6:50 7:18.4247 8:16.1045 
0.1419491209418677 1:8 2:15 3:0.9277 4:0.9935 5:50 6:50 7:18.0694 8:16.6021 
0.7997289060356323 1:13 2:25 3:0.9412 4:0.9987 5:50 6:50 7:22.8587 8:22.7306 
0.6839171732934818 1:9 2:19 3:0.9203 4:0.9995 5:50 6:50 7:22.6362 8:22.0678 
0.3376440810771595 1:5 2:11 3:0.9949 4:0.9987 5:50 6:50 7:16.3599 8:16.3415 
0.2751481107404031 1:12 2:29 3:0.7994 4:0.9816 5:50 6:50 7:20.5829 8:16.7027 
0.7439622301240099 1:16 2:27 3:0.7304 4:0.9587 5:34.6311 6:50 7:22.8274 8:15.7958 
0.3020649542164769 1:14 2:36 3:0.8376 4:0.9759 5:50 6:50 7:22.834 8:19.4717 
1 1:9 2:12 3:0.8793 4:0.9738 5:50 6:50 7:14.2876 8:8.64 
0.9602510073950628 1:6 2:9 3:0.9347 4:0.9616 5:50 6:50 7:16.0526 8:15.7042 
0.003642703948859777 1:10 2:18 3:0.9252 4:0.998 5:50 6:50 7:20.7629 8:20.3342 
0.4777085035076255 1:9 2:14 3:0.9624 4:0.9989 5:50 6:50 7:18.5422 8:18.3278 
0.4192960874881427 1:4 2:6 3:0.9933 4:0.9995 5:50 6:50 7:11.7651 8:11.6972 
0.8644120837372871 1:8 2:18 3:0.8852 4:0.9965 5:50 6:50 7:16.2915 8:13.2824 
0.2723915259537099 1:7 2:14 3:0.8515 4:0.9909 5:50 6:50 7:17.8019 8:14.6477 
0.4768750988129032 1:5 2:9 3:0.9798 4:0.9999 5:50 6:50 7:11.6881 8:11.6476 
1 1:10 2:21 3:0.9316 4:0.9991 5:50 6:50 7:22.9248 8:22.3192 
0.7870564770320245 1:6 2:10 3:0.9616 4:0.9999 5:50 6:50 7:13.1348 8:12.906 
0.8339022232455053 1:4 2:5 3:0.9661 4:0.9761 5:50 6:50 7:11.3267 8:7.734 
0.02985894951987039 1:3 2:5 3:0.9961 4:0.999 5:50 6:50 7:9.4826 8:9.2389 
1 1:13 2:29 3:0.792 4:0.9592 5:50 6:50 7:23.5955 8:17.5538 
0.686901482148691 1:6 2:6 3:0.9471 4:0.9629 5:50 6:50 7:10.9263 8:10.5534 
0.7900453081198894 1:7 2:11 3:0.9247 4:0.9985 5:50 6:50 7:16.0258 8:15.6942 
0.9912360904011239 1:9 2:25 3:0.9798 4:1 5:50 6:50 7:25.2404 8:25.2095 
0.9986303053439432 1:19 2:37 3:0.79 4:0.9972 5:50 6:50 7:26.8427 8:24.0675 
0.1843158179111997 1:7 2:14 3:0.8385 4:0.9966 5:50 6:50 7:14.7408 8:13.2963 
0.1832264266070964 1:11 2:19 3:0.8643 4:0.996 5:50 6:50 7:19.778 8:17.1365 
0.7440124856534581 1:9 2:29 3:0.7965 4:0.9821 5:50 6:50 7:19.1601 8:13.3591 
0.1216537183025519 1:10 2:22 3:0.9345 4:0.9986 5:50 6:50 7:22.7666 8:22.6381 
0.6984189160228187 1:9 2:24 3:0.837 4:0.921 5:50 6:50 7:10.9349 8:5.6253 
0.1488458763887728 1:8 2:15 3:0.9184 4:0.9943 5:50 6:50 7:17.0372 8:15.5471 
0.4980226634204361 1:9 2:19 3:0.9565 4:0.9894 5:50 6:50 7:21.5747 8:17.6078 
0.6173355741038642 1:9 2:22 3:0.9115 4:0.9998 5:50 6:50 7:22.9387 8:22.8537 
0.2658370437582138 1:7 2:13 3:0.9691 4:0.9998 5:50 6:50 7:16.3372 8:16.2218 
0.1095134725113079 1:9 2:19 3:0.9489 4:0.9953 5:50 6:50 7:18.4112 8:18.0681 
0.3148686599357119 1:15 2:35 3:0.8309 4:0.9581 5:50 6:50 7:25.0089 8:24.8991 
0.2171888629189717 1:5 2:7 3:0.9117 4:0.9969 5:50 6:50 7:11.3732 8:8.2555 
0.714399794399148 1:8 2:16 3:0.925 4:0.999 5:50 6:50 7:19.3911 8:18.831 
1 1:8 2:19 3:0.9114 4:0.9724 5:50 6:50 7:18.9299 8:16.7831 
0.08688755538077447 1:9 2:22 3:0.9009 4:0.991 5:50 6:50 7:22.9614 8:22.3527 
0.0007927800871941974 1:6 2:13 3:0.8909 4:0.9307 5:50 6:50 7:16.2812 8:15.3156 
0.01608696193873177 1:5 2:9 3:0.9749 4:0.9996 5:50 6:50 7:11.5269 8:11.3546 
0.6782252340798254 1:7 2:15 3:0.8373 4:0.93 5:50 6:50 7:17.8244 8:13.8143 
0.04885041229784883 1:7 2:17 3:0.9691 4:0.9997 5:50 6:50 7:18.518 8:18.4581 
0.9969114819490627 1:7 2:14 3:0.8385 4:0.9966 5:50 6:50 7:14.7408 8:13.2963 
0.2530050811258415 1:16 2:37 3:0.9124 4:0.9947 5:50 6:50 7:27.4094 8:27.3203 
0.6741246000589494 1:8 2:23 3:0.9843 4:0.9982 5:50 6:50 7:23.0302 8:23.0196 
0.7042280753972348 1:5 2:6 3:0.8959 4:0.9663 5:50 6:50 7:13.9619 8:8.242 
0.7439576015559677 1:22 2:34 3:0.5933 4:0.8726 5:26.3742 6:50 7:21.093 8:9.385 
0.6711641648135958 1:9 2:22 3:0.894 4:0.9977 5:50 6:50 7:21.0194 8:19.5991 
0.9861377904727979 1:14 2:24 3:0.8719 4:0.9913 5:50 6:50 7:22.8431 8:21.7638 
1 1:7 2:17 3:0.9691 4:0.9997 5:50 6:50 7:18.518 8:18.4581 
0.9888890215632324 1:9 2:19 3:0.8604 4:0.9899 5:50 6:50 7:15.7247 8:12.9492 
1 1:5 2:7 3:0.9117 4:0.9969 5:50 6:50 7:11.3732 8:8.2555 
0.407385482397583 1:6 2:13 3:0.9614 4:0.9994 5:50 6:50 7:15.1653 8:14.478 
0.2210274910607271 1:5 2:8 3:0.9865 4:0.9973 5:50 6:50 7:12.455 8:10.5771 
0.9651094214596225 1:7 2:20 3:0.9205 4:0.9975 5:50 6:50 7:20.6109 8:18.5977 
0.07774756170715746 1:5 2:10 3:0.969 4:0.9998 5:50 6:50 7:14.8116 8:14.281 
0.9827040694385731 1:9 2:14 3:0.9624 4:0.9989 5:50 6:50 7:18.5422 8:18.3278 
0.05689867447493926 1:5 2:10 3:0.8506 4:0.8659 5:50 6:50 7:16.3536 8:16.1335 
0.7955170783968514 1:9 2:18 3:0.9004 4:0.9004 5:50 6:50 7:20.2499 8:18.5805 
0.07418589430835387 1:4 2:6 3:0.962 4:0.9933 5:50 6:50 7:13.8691 8:12.3778 
0.4923776413417887 1:7 2:18 3:0.9793 4:0.9996 5:50 6:50 7:15.9217 8:15.7474 
0.4760177898743996 1:7 2:17 3:0.9767 4:0.9994 5:50 6:50 7:20.8078 8:20.6822 
0.233926738205679 1:6 2:10 3:0.9471 4:0.9927 5:50 6:50 7:10.9263 8:10.1935 
0.3890503821367439 1:5 2:8 3:0.9505 4:0.999 5:50 6:50 7:11.7881 8:11.6115 
0.2564444728173381 1:14 2:35 3:0.9327 4:0.9914 5:50 6:50 7:25.0577 8:25.0095 
0.6644019880119427 1:8 2:17 3:0.8406 4:0.9601 5:50 6:50 7:21.3898 8:16.0036 
1 1:14 2:36 3:0.8376 4:0.9759 5:50 6:50 7:22.834 8:19.4717 
0.6168326722072008 1:12 2:16 3:0.7692 4:0.9817 5:50 6:50 7:14.9227 8:10.7512 
0.8955521641520157 1:9 2:19 3:0.9554 4:0.9936 5:50 6:50 7:20.6007 8:19.3734 
1 1:5 2:8 3:0.9865 4:0.9973 5:50 6:50 7:12.455 8:10.5771 
0.6330072471420413 1:13 2:28 3:0.9106 4:0.9945 5:50 6:50 7:23.6704 8:23.0137 
0.2093786276794967 1:8 2:18 3:0.9591 4:0.9983 5:50 6:50 7:17.0984 8:16.4543 
0.8016319389069371 1:4 2:5 3:0.9865 4:0.9964 5:50 6:50 7:11.4789 8:11.2671 
0.9990143722571617 1:6 2:12 3:0.9127 4:0.9975 5:50 6:50 7:15.9146 8:14.9001 
0.9844366709701278 1:12 2:16 3:0.7692 4:0.9817 5:50 6:50 7:14.9227 8:10.7512 
0.2601934254959116 1:5 2:9 3:0.9872 4:0.9999 5:50 6:50 7:13.9292 8:13.8763 
0.5884328380040645 1:7 2:16 3:0.799 4:0.9836 5:50 6:50 7:14.6764 8:12.1379 
0.7723538407219277 1:4 2:5 3:0.9091 4:0.9892 5:50 6:50 7:11.1946 8:5.5185 
0.6856702590061259 1:3 2:6 3:0.9955 4:0.9997 5:50 6:50 7:10.9252 8:9.3287 
1 1:6 2:12 3:0.918 4:0.9936 5:50 6:50 7:18.3645 8:15.7328 
1 1:25 2:37 3:0.6922 4:0.9439 5:50 6:50 7:13.7727 8:7.1551 
0.9904301389381001 1:7 2:11 3:0.8951 4:0.9928 5:50 6:50 7:16.1929 8:12.1663 
0.3460126200574627 1:9 2:18 3:0.8989 4:0.987 5:50 6:50 7:18.634 8:15.5674 
0.2471942143856716 1:4 2:10 3:0.994 4:0.9999 5:50 6:50 7:14.0165 8:13.9449 
0.5815420678578877 1:6 2:10 3:0.9596 4:0.9952 5:50 6:50 7:16.002 8:14.5734 
0.401151950399569 1:7 2:13 3:0.9046 4:0.9981 5:50 6:50 7:14.6723 8:13.5721 
0.2621691912345046 1:5 2:13 3:0.9861 4:0.9984 5:50 6:50 7:16.3739 8:16.3671 
0.2978656457336613 1:7 2:12 3:0.9819 4:0.9988 5:50 6:50 7:16.3109 8:16.0795 
0.9876331537427292 1:4 2:7 3:0.9468 4:0.9794 5:50 6:50 7:10.8424 8:8.9626 
0.7449554791680568 1:10 2:12 3:0.6261 4:0.6444 5:50 6:50 7:20.7716 8:20.0782 
0.7616951006182775 1:7 2:13 3:0.7876 4:0.8692 5:50 6:50 7:15.7973 8:8.8883 
0.9153910712364967 1:8 2:16 3:0.8972 4:0.9871 5:50 6:50 7:20.7993 8:18.8253 
0.1430271582692378 1:7 2:15 3:0.9166 4:0.9957 5:50 6:50 7:17.3993 8:15.2998 
0.183263921192623 1:13 2:30 3:0.899 4:0.9997 5:50 6:50 7:24.7485 8:24.1769 
1 1:6 2:8 3:0.8855 4:0.9879 5:50 6:50 7:13.9761 8:10.6679 
0.03849011787595814 1:8 2:22 3:0.9922 4:1 5:50 6:50 7:20.8189 8:20.8102 
0.9958781494473076 1:12 2:31 3:0.894 4:0.9961 5:50 6:50 7:25.0233 8:24.6601 
1 1:6 2:9 3:0.9129 4:0.9511 5:50 6:50 7:16.1557 8:10.2909 
0.2472089737883097 1:7 2:16 3:0.7697 4:0.9588 5:50 6:50 7:20.6571 8:19.9918 
0.6695859504942843 1:11 2:18 3:0.7833 4:0.9908 5:50 6:50 7:15.1817 8:12.7761 
0.7311259657196186 1:5 2:12 3:0.9247 4:0.9896 5:50 6:50 7:12.5644 8:11.5743 
0.9966365563818552 1:11 2:18 3:0.7833 4:0.9908 5:50 6:50 7:15.1817 8:12.7761 
0.481999412001741 1:9 2:21 3:0.8555 4:0.9977 5:50 6:50 7:19.4492 8:17.5358 
0.3188432922222819 1:6 2:10 3:0.983 4:0.9998 5:50 6:50 7:13.7556 8:13.6405 
0.5502996619122524 1:8 2:12 3:0.8473 4:0.9571 5:50 6:50 7:14.4363 8:11.3972 
0.6927245524412178 1:14 2:40 3:0.9404 4:0.9984 5:50 6:50 7:29.4691 8:29.4222 
0.5641788934476136 1:8 2:14 3:0.8923 4:0.995 5:50 6:50 7:18.3516 8:16.964 
0.3135840680279279 1:4 2:6 3:0.9828 4:0.9828 5:50 6:50 7:13.9104 8:12.8019 
0.896407861283425 1:7 2:15 3:0.8905 4:0.991 5:50 6:50 7:17.6513 8:15.7454 
0.7439838983747869 1:6 2:7 3:0.8972 4:0.9872 5:41.6304 6:50 7:13.1615 8:7.8176 
0.9983085713289059 1:7 2:10 3:0.9068 4:0.9819 5:50 6:50 7:18.051 8:14.549 
0.9206187871169007 1:5 2:14 3:0.9985 4:1 5:50 6:50 7:16.3251 8:16.3216 
0.7641801481267265 1:6 2:9 3:0.8776 4:0.9868 5:50 6:50 7:13.7509 8:12.5678 
0.425845703986461 1:5 2:9 3:0.9759 4:0.9962 5:50 6:50 7:15.9998 8:14.5834 
0.9850133914310402 1:8 2:15 3:0.9184 4:0.9943 5:50 6:50 7:17.0372 8:15.5471 
0.3321427908590919 1:5 2:9 3:0.9271 4:0.9978 5:50 6:50 7:13.8609 8:11.762 
0.2943748529530018 1:6 2:14 3:0.9936 4:0.9997 5:50 6:50 7:18.6062 8:18.5839 
0.8836449916939211 1:10 2:19 3:0.9133 4:0.9906 5:50 6:50 7:20.6324 8:18.0043 
0.9017042632590215 1:8 2:16 3:0.9189 4:0.9865 5:50 6:50 7:20.2553 8:19.9188 
0.7933973530632543 1:6 2:11 3:0.8725 4:0.9805 5:50 6:50 7:12.6465 8:9.5229 
0.04525827161110634 1:4 2:9 3:0.9846 4:0.9994 5:50 6:50 7:16.3821 8:16.348 
0.3493227573073989 1:6 2:13 3:0.9413 4:0.9843 5:50 6:50 7:16.3144 8:16.2909 
0.875677085304396 1:7 2:16 3:0.8647 4:0.9915 5:50 6:50 7:15.2711 8:13.4977 
0.4275398295333843 1:6 2:17 3:0.9395 4:0.9799 5:50 6:50 7:16.3146 8:16.2858 
0.5579419194399631 1:7 2:13 3:0.9744 4:0.9998 5:50 6:50 7:18.5457 8:18.3887 
0.3736880703087418 1:13 2:26 3:0.8232 4:0.9937 5:50 6:50 7:21.2423 8:18.8632 
0.8456942645535499 1:6 2:9 3:0.9073 4:0.9751 5:50 6:50 7:13.5327 8:10.2969 
1 1:11 2:17 3:0.9127 4:0.9697 5:19.4903 6:50 7:12.4871 8:9.2243 
0.5031898795043783 1:5 2:7 3:0.9904 4:0.9997 5:50 6:50 7:16.2647 8:16.1759 
0.1388812412464272 1:7 2:16 3:0.8969 4:0.9931 5:50 6:50 7:18.1395 8:17.8129 
1 1:5 2:9 3:0.9759 4:0.9962 5:50 6:50 7:15.9998 8:14.5834 
0.4770376974657034 1:7 2:11 3:0.9228 4:0.9992 5:50 6:50 7:13.6006 8:10.3221 
0.9992261425485195 1:9 2:18 3:0.8989 4:0.987 5:50 6:50 7:18.634 8:15.5674 
0.4618578803991442 1:6 2:10 3:0.9531 4:0.9961 5:50 6:50 7:13.0333 8:11.7798 
0.5806977444669738 1:10 2:16 3:0.925 4:0.9816 5:50 6:50 7:19.8027 8:15.8166 
1 1:6 2:7 3:0.8972 4:0.9872 5:41.6304 6:50 7:13.1615 8:7.8176 
1 1:13 2:29 3:0.942 4:0.9995 5:50 6:50 7:24.9803 8:24.9002 
0.06807411724583087 1:6 2:11 3:0.8722 4:0.99 5:50 6:50 7:12.4982 8:11.5419 
0.5792448913550042 1:10 2:22 3:0.9519 4:0.9992 5:50 6:50 7:22.9478 8:22.9097 
0.4035168351529874 1:10 2:18 3:0.8359 4:0.9903 5:50 6:50 7:20.0534 8:19.1549 
0.5466083612133117 1:8 2:15 3:0.9548 4:0.9989 5:50 6:50 7:18.3186 8:17.7874 
0.4895382710585157 1:5 2:8 3:0.9681 4:0.9992 5:50 6:50 7:10.5813 8:9.9196 
0.2786584822929208 1:7 2:11 3:0.9346 4:0.9923 5:50 6:50 7:16.2327 8:15.6517 
0.7439626432980637 1:20 2:35 3:0.7409 4:0.9757 5:50 6:50 7:18.5127 8:12.772 
0.157996115144392 1:7 2:15 3:0.876 4:0.9902 5:50 6:50 7:19.3492 8:16.0886 
1 1:6 2:11 3:0.8722 4:0.99 5:50 6:50 7:12.4982 8:11.5419 
0.9592595530018098 1:13 2:30 3:0.899 4:0.9997 5:50 6:50 7:24.7485 8:24.1769 
0.8883852858882194 1:3 2:5 3:0.9985 4:0.9985 5:50 6:50 7:9.4732 8:9.4575 
0.392513610086045 1:4 2:8 3:0.9115 4:0.9939 5:50 6:50 7:13.0961 8:9.5161 
0.5246534790855093 1:8 2:17 3:0.8639 4:0.9455 5:50 6:50 7:18.8479 8:18.3612 
0.7115993149215467 1:13 2:22 3:0.8977 4:0.9962 5:50 6:50 7:22.6439 8:22.3801 
1 1:13 2:17 3:0.7557 4:0.9643 5:50 6:50 7:21.4778 8:7.7371 
0.2901302712256935 1:7 2:16 3:0.9782 4:0.9998 5:50 6:50 7:18.5894 8:18.5696 
0.4904953965937211 1:7 2:9 3:0.937 4:0.9799 5:50 6:50 7:13.1298 8:11.4769 
0.7651017808550006 1:6 2:12 3:0.8693 4:0.9334 5:50 6:50 7:9.1225 8:4.4538 
0.9990650486194532 1:6 2:6 3:0.9471 4:0.9629 5:50 6:50 7:10.9263 8:10.5534 
0.743167734988516 1:18 2:44 3:0.9047 4:0.9942 5:50 6:50 7:31.2773 8:29.8889 
0.2457181322030698 1:4 2:9 3:0.9172 4:0.9764 5:50 6:50 7:15.3134 8:14.6505 
0.2789395090794659 1:10 2:19 3:0.8967 4:0.9876 5:50 6:50 7:18.7804 8:16.173 
0.7258515119379223 1:4 2:5 3:0.9856 4:0.9939 5:50 6:50 7:10.4192 8:9.1005 
0.9873307904292972 1:8 2:13 3:0.918 4:0.9954 5:50 6:50 7:15.8691 8:14.1585 
0.4304062802133253 1:9 2:23 3:0.9741 4:0.9981 5:50 6:50 7:23.0088 8:22.9709 
1 1:16 2:37 3:0.9124 4:0.9947 5:50 6:50 7:27.4094 8:27.3203 
0.2745012342980739 1:5 2:17 3:0.9933 4:0.9998 5:50 6:50 7:18.6044 8:18.596 
1 1:7 2:13 3:0.9182 4:0.994 5:50 6:50 7:20.4886 8:16.5736 
0.3717226929199405 1:3 2:3 3:0.9897 4:0.9928 5:50 6:50 7:11.3475 8:10.1884 
0.740603247148322 1:18 2:37 3:0.7737 4:0.9839 5:50 6:50 7:22.7099 8:21.4369 
0.9707924243379837 1:4 2:6 3:0.9978 4:0.9999 5:50 6:50 7:9.2837 8:9.2625 
0.9882638734972704 1:6 2:10 3:0.9733 4:0.9997 5:50 6:50 7:15.4485 8:15.1713 
0.9893742043679865 1:13 2:28 3:0.9106 4:0.9945 5:50 6:50 7:23.6704 8:23.0137 
0.1074509388159534 1:13 2:24 3:0.9099 4:0.9997 5:50 6:50 7:22.9244 8:22.8446 
0.7439049807256739 1:10 2:14 3:0.7811 4:0.9779 5:50 6:50 7:19.9996 8:10.9003 
0.362830627032143 1:6 2:12 3:0.9674 4:0.9938 5:50 6:50 7:15.72 8:12.1255 
0.9774866180291207 1:6 2:9 3:0.8875 4:0.9563 5:50 6:50 7:12.2504 8:8.4305 
1 1:9 2:15 3:0.9188 4:0.9923 5:50 6:50 7:19.6008 8:17.0595 
1 1:3 2:3 3:0.9897 4:0.9928 5:50 6:50 7:11.3475 8:10.1884 
0.4005500093232448 1:7 2:16 3:0.9594 4:0.9979 5:50 6:50 7:20.6605 8:20.399 
1 1:18 2:37 3:0.7737 4:0.9839 5:50 6:50 7:22.7099 8:21.4369 
0.3430524322186305 1:8 2:13 3:0.8898 4:0.9969 5:50 6:50 7:13.8058 8:12.6397 
0.7219142221765067 1:8 2:13 3:0.8952 4:0.9925 5:50 6:50 7:18.2616 8:16.0569 
0.997435458873176 1:7 2:13 3:0.7876 4:0.8692 5:50 6:50 7:15.7973 8:8.8883 
0.8727956926239252 1:5 2:10 3:0.9979 4:1 5:50 6:50 7:11.8067 8:11.7985 
1 1:22 2:34 3:0.5933 4:0.8726 5:26.3742 6:50 7:21.093 8:9.385 
0.2769705483355227 1:7 2:14 3:0.9339 4:0.9997 5:50 6:50 7:18.2424 8:16.9542 
0.2368396366912654 1:4 2:6 3:0.9627 4:0.9957 5:50 6:50 7:10.3063 8:8.9899 
0.7586048623387538 1:7 2:16 3:0.8878 4:0.9976 5:50 6:50 7:16.7596 8:13.8535 
0.8242500491098402 1:9 2:26 3:0.9195 4:0.9986 5:50.6781 6:50 7:22.7526 8:22.6077 
0.2315496344610761 1:8 2:19 3:0.8962 4:0.9928 5:50 6:50 7:20.6367 8:19.7752 
0.7434302399189381 1:11 2:26 3:0.8794 4:0.9954 5:50 6:50 7:27.0702 8:26.7283 
0.6258175991839736 1:8 2:16 3:0.8895 4:0.9977 5:50 6:50 7:18.1627 8:16.6702 
0.8273531628932159 1:7 2:9 3:0.6912 4:0.8676 5:50 6:50 7:13.9027 8:9.7752 
1 1:9 2:16 3:0.9284 4:0.9886 5:23.5212 6:50 7:17.3145 8:12.2158 
0.07874291873278003 1:8 2:16 3:0.9524 4:0.997 5:50 6:50 7:18.1811 8:17.3273 
0.9735359579302803 1:9 2:21 3:0.8555 4:0.9977 5:50 6:50 7:19.4492 8:17.5358 
0.008314087121869096 1:11 2:33 3:0.9766 4:1 5:50 6:50 7:25.216 8:25.1881 
1 1:8 2:9 3:0.7106 4:0.7502 5:50 6:50 7:16.3842 8:13.8799 
0.6683845176387039 1:9 2:22 3:0.9516 4:0.9962 5:50 6:50 7:20.8028 8:20.6007 
0.9922252525875968 1:13 2:24 3:0.9099 4:0.9997 5:50 6:50 7:22.9244 8:22.8446 
1 1:5 2:8 3:0.8165 4:0.8567 5:13.5762 6:50 7:13.1988 8:8.4597 
0.9893950233705027 1:7 2:9 3:0.937 4:0.9799 5:50 6:50 7:13.1298 8:11.4769 
1 1:10 2:13 3:0.8527 4:0.9578 5:50 6:50 7:16.9376 8:11.131 
1 1:9 2:19 3:0.9203 4:0.9995 5:50 6:50 7:22.6362 8:22.0678 
1 1:9 2:29 3:0.7965 4:0.9821 5:50 6:50 7:19.1601 8:13.3591 
1 1:8 2:13 3:0.8898 4:0.9969 5:50 6:50 7:13.8058 8:12.6397 
0.999077150402971 1:18 2:39 3:0.7859 4:0.99 5:50 6:50 7:23.3111 8:20.1127 
0.8677907096401856 1:8 2:20 3:0.989 4:0.9996 5:50 6:50 7:20.6993 8:20.6539 
0.3344070683078328 1:9 2:16 3:0.858 4:0.9979 5:50 6:50 7:20.1544 8:18.2213 
0.8997110549488538 1:5 2:17 3:0.9933 4:0.9998 5:50 6:50 7:18.6044 8:18.596 
0.9784200469733715 1:10 2:16 3:0.925 4:0.9816 5:50 6:50 7:19.8027 8:15.8166 
1 1:7 2:11 3:0.9255 4:0.9907 5:50 6:50 7:15.9819 8:13.7581 
1 1:9 2:24 3:0.837 4:0.921 5:50 6:50 7:10.9349 8:5.6253 
0.4566371851752092 1:12 2:17 3:0.6997 4:0.7649 5:50 6:50 7:20.4556 8:13.9826 
0.1855765073360933 1:5 2:13 3:0.9869 4:1 5:50 6:50 7:14.0247 8:13.9253 
0.9863045233578728 1:7 2:11 3:0.8031 4:0.9219 5:50 6:50 7:14.2788 8:13.2359 
1 1:4 2:5 3:0.9856 4:0.9939 5:50 6:50 7:10.4192 8:9.1005 
0.2468836282142957 1:4 2:4 3:0.9726 4:0.9828 5:50 6:50 7:10.3978 8:8.2963 
0.7279024741192443 1:4 2:6 3:0.9695 4:0.9986 5:50 6:50 7:13.2234 8:10.6226 
0.9816024770067436 1:10 2:27 3:0.9457 4:1 5:50 6:50 7:23.0308 8:22.9775 
0.5381634263030015 1:8 2:14 3:0.8187 4:0.9029 5:50 6:50 7:18.1333 8:15.4188 
1 1:8 2:17 3:0.8724 4:0.9898 5:50 6:50 7:19.5333 8:15.1297 
0.4013581631174554 1:6 2:10 3:0.9209 4:0.9903 5:50 6:50 7:13.0005 8:8.9787 
1 1:6 2:17 3:0.9395 4:0.9799 5:50 6:50 7:16.3146 8:16.2858 
0.2393993069547176 1:7 2:13 3:0.9436 4:0.9964 5:50 6:50 7:16.2046 8:15.1062 
0.9685252940559517 1:6 2:10 3:0.8956 4:0.9809 5:50 6:50 7:15.9066 8:10.3213 
0.2317955485846145 1:10 2:29 3:0.9557 4:0.9967 5:50 6:50 7:22.9662 8:22.9097 
1 1:7 2:13 3:0.9691 4:0.9998 5:50 6:50 7:16.3372 8:16.2218 
1 1:11 2:33 3:0.9766 4:1 5:50 6:50 7:25.216 8:25.1881 
0.8819629097867399 1:10 2:26 3:0.9078 4:0.9837 5:50 6:50 7:22.8732 8:22.7773 
0.3184081558034431 1:17 2:37 3:0.7991 4:0.96 5:50 6:50 7:27.266 8:26.9801 
0.2629533032758289 1:6 2:13 3:0.9878 4:0.9984 5:50 6:50 7:18.5555 8:18.541 
1 1:4 2:9 3:0.9846 4:0.9994 5:50 6:50 7:16.3821 8:16.348 
0.6796678152955281 1:4 2:8 3:0.9675 4:0.9988 5:50 6:50 7:14.0263 8:12.1774 
0.9985459280080256 1:13 2:26 3:0.8232 4:0.9937 5:50 6:50 7:21.2423 8:18.8632 
1 1:5 2:9 3:0.9601 4:0.9958 5:23.7262 6:50 7:10.0721 8:9.0158 
0.7687223152584897 1:4 2:5 3:0.9581 4:0.9908 5:50 6:50 7:11.0651 8:9.657 
0.3826945145319108 1:8 2:21 3:0.9233 4:0.9921 5:50 6:50 7:19.1247 8:16.4998 
0.7631746723189911 1:7 2:14 3:0.9496 4:0.9996 5:50 6:50 7:16.2807 8:16.1464 
0.6662149627931693 1:8 2:17 3:0.9452 4:0.9995 5:50 6:50 7:18.1404 8:17.8963 
1 1:6 2:10 3:0.9471 4:0.9927 5:50 6:50 7:10.9263 8:10.1935 
0.2031467593156921 1:6 2:13 3:0.9519 4:0.9988 5:50 6:50 7:18.406 8:17.6592 
0.5882164938035417 1:7 2:15 3:0.9721 4:0.9996 5:50 6:50 7:18.5626 8:18.5353 
1 1:5 2:7 3:0.9904 4:0.9997 5:50 6:50 7:16.2647 8:16.1759 
0.3250959350508793 1:10 2:16 3:0.8166 4:0.9918 5:50 6:50 7:18.0636 8:16.169 
1 1:7 2:15 3:0.876 4:0.9902 5:50 6:50 7:19.3492 8:16.0886 
0.1581647172232086 1:7 2:17 3:0.9682 4:0.9978 5:50 6:50 7:18.3271 8:17.2355 
0.3195934860364193 1:6 2:9 3:0.9807 4:0.9938 5:50 6:50 7:14.091 8:13.8459 
0.918358015959677 1:10 2:17 3:0.8849 4:0.9888 5:50 6:50 7:20.1079 8:18.8576 
1 1:4 2:6 3:0.97 4:0.9958 5:50 6:50 7:12.6196 8:8.6727 
1 1:8 2:15 3:0.9277 4:0.9935 5:50 6:50 7:18.0694 8:16.6021 
0.4897816081631134 1:7 2:15 3:0.9046 4:0.9901 5:50 6:50 7:16.1751 8:14.4155 
0.9946476026873854 1:4 2:5 3:0.9091 4:0.9892 5:50 6:50 7:11.1946 8:5.5185 
0.2431971797391078 1:6 2:14 3:0.9812 4:0.9998 5:50 6:50 7:16.3397 8:16.3279 
0.994784749111428 1:5 2:6 3:0.8959 4:0.9663 5:50 6:50 7:13.9619 8:8.242 
0.9389261848225001 1:6 2:14 3:0.9746 4:0.9999 5:50 6:50 7:15.3277 8:15.2571 
0.03245215816190233 1:9 2:18 3:0.9161 4:0.9985 5:50 6:50 7:20.6871 8:19.9681 
0.5976306647001365 1:6 2:16 3:0.9982 4:1 5:50 6:50 7:16.34 8:16.3336 
1 1:6 2:10 3:0.8178 4:0.9515 5:50 6:50 7:14.5465 8:6.7871 
0.9438637355867898 1:5 2:8 3:0.9681 4:0.9992 5:50 6:50 7:10.5813 8:9.9196 
0.4812377442922315 1:4 2:5 3:0.9257 4:0.9629 5:50 6:50 7:11.7884 8:9.7943 
0.4983212652539689 1:4 2:8 3:0.9959 4:0.9999 5:50 6:50 7:11.8132 8:11.7851 
1 1:14 2:35 3:0.9327 4:0.9914 5:50 6:50 7:25.0577 8:25.0095 
0.5170338808281709 1:7 2:14 3:0.8347 4:0.9865 5:50 6:50 7:16.2275 8:13.4477 
1 1:6 2:10 3:0.901 4:0.9878 5:50 6:50 7:14.2021 8:10.8555 
0.9834031966105261 1:8 2:12 3:0.8473 4:0.9571 5:50 6:50 7:14.4363 8:11.3972 
0.3245832561111191 1:8 2:14 3:0.8864 4:0.9912 5:50 6:50 7:17.5188 8:13.9203 
0.9973034122621989 1:5 2:9 3:0.9213 4:0.9925 5:50 6:50 7:12.8524 8:9.3739 
0.188389623293552 1:7 2:18 3:0.9837 4:0.9999 5:50 6:50 7:20.8002 8:20.7416 
1 1:20 2:35 3:0.7409 4:0.9757 5:50 6:50 7:18.5127 8:12.772 
0.4751918454839403 1:6 2:12 3:0.9844 4:0.9994 5:50 6:50 7:16.3624 8:16.3384 
0.279608134397391 1:6 2:19 3:0.9955 4:0.9989 5:50 6:50 7:20.8075 8:20.7942 
0.7067517674032575 1:16 2:40 3:0.8613 4:0.9621 5:50 6:50 7:29.4309 8:29.2924 
1 1:10 2:29 3:0.9557 4:0.9967 5:50 6:50 7:22.9662 8:22.9097 
0.480468431382044 1:7 2:19 3:0.9913 4:0.9996 5:50 6:50 7:20.8354 8:20.8267 
1 1:16 2:40 3:0.8613 4:0.9621 5:50 6:50 7:29.4309 8:29.2924 
0.9558766522131925 1:6 2:20 3:0.9917 4:0.9967 5:50 6:50 7:20.8231 8:20.8124 
1 1:14 2:40 3:0.9404 4:0.9984 5:50 6:50 7:29.4691 8:29.4222 
0.9911593824177768 1:6 2:12 3:0.8693 4:0.9334 5:50 6:50 7:9.1225 8:4.4538 
1 1:10 2:19 3:0.8967 4:0.9876 5:50 6:50 7:18.7804 8:16.173 
0.3235895619779125 1:7 2:13 3:0.9026 4:0.994 5:50 6:50 7:15.7488 8:13.4501 
0.508813287429372 1:5 2:8 3:0.987 4:0.9965 5:50 6:50 7:16.0217 8:15.868 
0.3864665002488235 1:6 2:10 3:0.9638 4:0.999 5:50 6:50 7:16.2404 8:16.0885 
0.7433222476347334 1:13 2:31 3:0.7981 4:0.9751 5:50 6:50 7:25.821 8:20.3527 
0.05448033044276004 1:5 2:11 3:0.9871 4:0.9998 5:50 6:50 7:15.8762 8:15.6274 
0.9986952640412984 1:6 2:11 3:0.8873 4:0.9805 5:32.4934 6:50 7:9.7515 8:5.0373 
1 1:16 2:27 3:0.7304 4:0.9587 5:34.6311 6:50 7:22.8274 8:15.7958 
0.1562808778775772 1:7 2:8 3:0.8846 4:0.9826 5:50 6:50 7:13.8596 8:9.7887 
0.9993447964769756 1:5 2:13 3:0.9869 4:1 5:50 6:50 7:14.0247 8:13.9253 
0.7439217895647787 1:20 2:34 3:0.7041 4:0.8659 5:50 6:50 7:24.995 8:16.3367 
0.8530864861667401 1:7 2:13 3:0.8003 4:0.9851 5:50 6:50 7:14.1194 8:11.6873 
0.8287213344363946 1:9 2:18 3:0.9275 4:0.9863 5:50 6:50 7:20.6788 8:20.5985 
0.8553890313044124 1:5 2:7 3:0.9838 4:0.9998 5:50 6:50 7:11.6308 8:11.45 
0.3532340556556001 1:6 2:11 3:0.9267 4:0.9951 5:50 6:50 7:15.7249 8:13.3117 
0.5467565635384885 1:8 2:19 3:0.9545 4:0.9987 5:50 6:50 7:20.7805 8:20.6641 
0.2662368763164463 1:8 2:18 3:0.7968 4:0.9245 5:50 6:50 7:20.4764 8:20.1392 
1 1:8 2:22 3:0.9922 4:1 5:50 6:50 7:20.8189 8:20.8102 
0.8548712813039695 1:7 2:19 3:0.994 4:0.9999 5:50 6:50 7:18.5918 8:18.5771 
0.8894995259391333 1:9 2:21 3:0.9078 4:0.9979 5:50 6:50 7:21.1597 8:19.8047 
0.484531076435154 1:7 2:14 3:0.9048 4:0.9709 5:50 6:50 7:17.5407 8:12.3374 
0.3728961407300281 1:9 2:25 3:0.9273 4:0.9919 5:50 6:50 7:22.8596 8:22.7209 
1 1:20 2:34 3:0.7041 4:0.8659 5:50 6:50 7:24.995 8:16.3367 
0.7000059184337879 1:6 2:11 3:0.986 4:0.999 5:50 6:50 7:16.3679 8:16.3362 
0.04768950456352554 1:5 2:7 3:0.9504 4:0.9504 5:50 6:50 7:11.2772 8:10.3571 
0.9883862380776854 1:8 2:14 3:0.8864 4:0.9912 5:50 6:50 7:17.5188 8:13.9203 
0.7476722746421664 1:7 2:15 3:0.9691 4:0.9999 5:50 6:50 7:16.1373 8:16.0388 
0.299031868863386 1:8 2:15 3:0.8998 4:0.9897 5:50 6:50 7:17.8857 8:15.8936 
0.9692154164652564 1:5 2:10 3:0.9533 4:0.9988 5:50 6:50 7:16.2321 8:14.7756 
0.7697245013018187 1:4 2:9 3:0.988 4:0.9999 5:50 6:50 7:11.8056 8:11.7444 
0.5629763411899829 1:14 2:29 3:0.9269 4:0.9945 5:50 6:50 7:24.585 8:23.1689 
0.5619864209624906 1:4 2:11 3:0.9937 4:0.998 5:50 6:50 7:16.3237 8:16.3164 
0.4003463450438316 1:8 2:18 3:0.8736 4:0.9992 5:50 6:50 7:17.5588 8:15.3493 
0.9776445797555976 1:7 2:16 3:0.8803 4:0.9943 5:50 6:50 7:15.767 8:15.3425 
0.4137292171618298 1:5 2:7 3:0.9701 4:0.9987 5:50 6:50 7:13.9259 8:13.3227 
1 1:9 2:19 3:0.9489 4:0.9953 5:50 6:50 7:18.4112 8:18.0681 
1 1:6 2:16 3:0.9816 4:0.9996 5:50 6:50 7:20.776 8:20.757 
1 1:13 2:31 3:0.7981 4:0.9751 5:50 6:50 7:25.821 8:20.3527 
0.9993771577773205 1:7 2:8 3:0.8846 4:0.9826 5:50 6:50 7:13.8596 8:9.7887 
0.7475641830538873 1:7 2:15 3:0.8906 4:0.9532 5:50 6:50 7:17.7459 8:17.4849 
0.9985234282848234 1:11 2:19 3:0.8643 4:0.996 5:50 6:50 7:19.778 8:17.1365 
0.9800153926395855 1:4 2:8 3:0.9115 4:0.9939 5:50 6:50 7:13.0961 8:9.5161 
1 1:13 2:17 3:0.6302 4:0.7145 5:50 6:50 7:17.5998 8:11.6779 
1 1:12 2:27 3:0.7907 4:0.9732 5:41.2215 6:50 7:21.6943 8:13.8827 
1 1:18 2:44 3:0.9047 4:0.9942 5:50 6:50 7:31.2773 8:29.8889 
1 1:12 2:29 3:0.7994 4:0.9816 5:50 6:50 7:20.5829 8:16.7027 
0.4566188237278842 1:5 2:8 3:0.9729 4:0.9793 5:50 6:50 7:13.3104 8:12.7977 
0.5779715285266651 1:8 2:17 3:0.9367 4:0.9982 5:50 6:50 7:20.5381 8:20.4325 
0.7043049323917119 1:11 2:33 3:0.9427 4:0.9944 5:50 6:50 7:25.1864 8:25.1542 
0.1386359138910323 1:5 2:9 3:0.975 4:0.9981 5:50 6:50 7:13.2563 8:12.5431 
0.9836253987585899 1:9 2:16 3:0.858 4:0.9979 5:50 6:50 7:20.1544 8:18.2213 
0.5551817947545019 1:6 2:9 3:0.7502 4:0.9217 5:50 6:50 7:14.4747 8:8.7557 
1 1:11 2:26 3:0.8794 4:0.9954 5:50 6:50 7:27.0702 8:26.7283 
1 1:17 2:37 3:0.8411 4:0.9901 5:50 6:50 7:25.924 8:21.6295 
0.9723245192939543 1:3 2:5 3:0.9872 4:0.995 5:50 6:50 7:11.533 8:8.3227 
0.803365782854253 1:7 2:13 3:0.9314 4:0.9978 5:50 6:50 7:15.5365 8:15.2406 
1 1:14 2:32 3:0.9299 4:0.9997 5:50 6:50 7:25.1078 8:25.0565 
0.5321107670559421 1:14 2:33 3:0.932 4:0.9872 5:50 6:50 7:25.0628 8:24.9546 
0.9934267107204746 1:11 2:19 3:0.9306 4:0.995 5:50 6:50 7:20.5639 8:19.5095 
0.9834309936930088 1:5 2:7 3:0.9117 4:0.9969 5:50 6:50 7:11.3732 8:8.2555 
1 1:10 2:14 3:0.7811 4:0.9779 5:50 6:50 7:19.9996 8:10.9003 
0.4439574664689495 1:5 2:10 3:0.9874 4:1 5:50 6:50 7:16.3514 8:16.3298 
1 1:6 2:10 3:0.9245 4:0.9913 5:50 6:50 7:12.1601 8:8.5375 
0.982517982327316 1:7 2:11 3:0.9228 4:0.9992 5:50 6:50 7:13.6006 8:10.3221 
0.9947320959087038 1:8 2:16 3:0.7768 4:0.9706 5:50 6:50 7:12.0867 8:10.0219 
0.9668347018601671 1:9 2:19 3:0.9565 4:0.9894 5:50 6:50 7:21.5747 8:17.6078 
0.122472300035174 1:6 2:13 3:0.9633 4:0.9925 5:50 6:50 7:15.6303 8:15.4385 
0.02534682738203568 1:7 2:13 3:0.8823 4:0.9841 5:50 6:50 7:15.6536 8:11.7287 
0.8549689128493216 1:8 2:18 3:0.8697 4:0.9884 5:50 6:50 7:17.2873 8:14.0155 
0.4763635602147255 1:10 2:19 3:0.8835 4:0.9978 5:50 6:50 7:19.2065 8:17.073 
0.991693820953315 1:6 2:9 3:0.7502 4:0.9217 5:50 6:50 7:14.4747 8:8.7557 
1 1:13 2:22 3:0.8977 4:0.9962 5:50 6:50 7:22.6439 8:22.3801 
0.4047416561614167 1:8 2:17 3:0.9033 4:0.999 5:50 6:50 7:20.7204 8:19.691 
1 1:8 2:17 3:0.8406 4:0.9601 5:50 6:50 7:21.3898 8:16.0036 
0.347190370497076 1:6 2:11 3:0.9295 4:0.9978 5:50 6:50 7:16.4662 8:14.3978 
0.9820531782771452 1:7 2:14 3:0.9048 4:0.9709 5:50 6:50 7:17.5407 8:12.3374 
0.9688681655320943 1:12 2:17 3:0.6997 4:0.7649 5:50 6:50 7:20.4556 8:13.9826 
0.8392012557194878 1:4 2:5 3:0.9581 4:0.9908 5:50 6:50 7:11.0651 8:9.657 
0.8223166756255493 1:8 2:21 3:0.9501 4:0.9996 5:50 6:50 7:22.8832 8:22.5789 
1 1:7 2:13 3:0.8823 4:0.9841 5:50 6:50 7:15.6536 8:11.7287 
1 1:10 2:12 3:0.6261 4:0.6444 5:50 6:50 7:20.7716 8:20.0782 
0.9755335635174225 1:17 2:37 3:0.7991 4:0.96 5:50 6:50 7:27.266 8:26.9801 
0.9940077122588286 1:8 2:21 3:0.9233 4:0.9921 5:50 6:50 7:19.1247 8:16.4998 
0.9707373672650816 1:15 2:35 3:0.8309 4:0.9581 5:50 6:50 7:25.0089 8:24.8991 
1 1:8 2:18 3:0.9591 4:0.9983 5:50 6:50 7:17.0984 8:16.4543 
0.7564444329597593 1:6 2:14 3:0.9209 4:0.9971 5:50 6:50 7:12.837 8:11.2872 
1 1:10 2:20 3:0.9354 4:0.9991 5:50 6:50 7:18.5418 8:18.2012 
0.9908177133334704 1:14 2:29 3:0.9269 4:0.9945 5:50 6:50 7:24.585 8:23.1689 
1 1:10 2:18 3:0.9252 4:0.998 5:50 6:50 7:20.7629 8:20.3342 
0.9822562922688332 1:4 2:6 3:0.9569 4:0.9943 5:50 6:50 7:14.0859 8:11.3319 
0.7314154068781376 1:14 2:33 3:0.8335 4:0.9644 5:50 6:50 7:25.1724 8:25.0634 
0.7267186252114534 1:7 2:14 3:0.9776 4:0.9993 5:50 6:50 7:18.5942 8:18.576 
0.3006876696191824 1:14 2:38 3:0.9402 4:0.9991 5:50 6:50 7:29.1196 8:28.7544 
0.3322562875284848 1:13 2:38 3:0.9273 4:0.9994 5:50 6:50 7:29.3444 8:29.0309 
0.2699072572987898 1:16 2:38 3:0.8423 4:0.9972 5:50 6:50 7:27.8131 8:26.0303 
0.07663385010410014 1:8 2:23 3:0.9059 4:0.999 5:50 6:50 7:22.546 8:21.7412 
1 1:6 2:15 3:0.9385 4:0.9893 5:50 6:50 7:16.9029 8:12.6931 
0.7449250481049683 1:11 2:20 3:0.837 4:0.9843 5:37.4793 6:50 7:17.248 8:12.3509 
0.6492333371210308 1:6 2:18 3:0.9884 4:0.9999 5:50 6:50 7:18.4648 8:18.4554 
0.7440018911866843 1:7 2:16 3:0.8964 4:0.9953 5:35.1371 6:50 7:16.5041 8:14.2956 
0.7201625443830144 1:9 2:29 3:0.9707 4:0.9999 5:50 6:50 7:25.0444 8:24.9433 
0.3958574283965682 1:6 2:18 3:0.9499 4:0.9999 5:50 6:50 7:17.2868 8:15.7778 
0.6422017744945685 1:6 2:19 3:0.9332 4:0.9975 5:50 6:50 7:16.8801 8:15.4769 
0.2685706139809768 1:6 2:16 3:0.9314 4:0.9653 5:50 6:50 7:14.3168 8:11.4892 
0.2776931831310853 1:6 2:17 3:0.9259 4:0.9993 5:50 6:50 7:18.8424 8:15.6768 
0.6034279421320785 1:9 2:12 3:0.9008 4:0.9371 5:33.1138 6:50 7:9.8474 8:4.8647 
0.7088218988898214 1:5 2:14 3:0.9826 4:0.9999 5:50 6:50 7:18.5547 8:18.4978 
1 1:9 2:15 3:0.9041 4:0.9923 5:50 6:50 7:18.2219 8:15.4547 
0.237270667585347 1:3 2:5 3:0.9992 4:0.9999 5:50 6:50 7:14.0217 8:13.999 
0.6392970517501262 1:17 2:35 3:0.75 4:0.8946 5:50 6:50 7:24.0307 8:17.393 
0.8133550592968616 1:4 2:11 3:0.9962 4:0.9999 5:50 6:50 7:15.5475 8:15.383 
0.3045947515299699 1:4 2:9 3:0.9838 4:0.9999 5:50 6:50 7:15.1019 8:14.0157 
0.7787597624719826 1:5 2:10 3:0.9585 4:0.9974 5:50 6:50 7:11.0857 8:7.2577 
1 1:5 2:9 3:0.9504 4:0.9957 5:50 6:50 7:11.7368 8:9.2152 
1 1:5 2:9 3:0.9294 4:0.9949 5:50 6:50 7:10.2427 8:8.6883 
0.7767150457273616 1:4 2:7 3:0.9579 4:0.9983 5:50 6:50 7:13.7676 8:10.8611 
0.8657045102376029 1:7 2:21 3:0.9803 4:1 5:50 6:50 7:22.9632 8:22.9291 
0.7432721001253348 1:23 2:55 3:0.7302 4:0.9525 5:50 6:50 7:14.8208 8:13.2343 
0.1306181040540936 1:6 2:15 3:0.9474 4:0.9989 5:50 6:50 7:15.6074 8:14.1936 
0.5276765737356597 1:9 2:24 3:0.958 4:0.9999 5:50 6:50 7:22.9123 8:22.8393 
0.3156027711979587 1:3 2:5 3:0.9994 4:1 5:50 6:50 7:13.3817 8:13.1392 
0.6311761891981977 1:5 2:10 3:0.9838 4:0.9998 5:50 6:50 7:15.1243 8:13.8054 
0.646432484739911 1:14 2:17 3:0.646 4:0.646 5:50 6:50 7:20.5226 8:14.8374 
0.3859099387447916 1:9 2:16 3:0.7682 4:0.905 5:50 6:50 7:14.5349 8:10.4202 
0.2552359068914528 1:7 2:16 3:0.877 4:0.9153 5:50 6:50 7:16.9491 8:15.1945 
0.5030295014806632 1:11 2:17 3:0.8423 4:0.8668 5:50 6:50 7:14.337 8:10.4766 
0.5250716889253524 1:7 2:13 3:0.8518 4:0.9285 5:50 6:50 7:12.5977 8:9.4407 
0.04687349665324045 1:3 2:5 3:0.9891 4:0.9994 5:50 6:50 7:11.3328 8:10.99 
0.7098540651684817 1:6 2:18 3:0.885 4:0.9955 5:50 6:50 7:15.661 8:12.5119 
1 1:7 2:16 3:0.8098 4:0.9774 5:35.9745 6:50 7:13.0751 8:10.0527 
1 1:4 2:7 3:0.9495 4:0.9979 5:40.8863 6:50 7:8.3053 8:5.6192 
1 1:13 2:25 3:0.8007 4:0.9736 5:50 6:50 7:14.6592 8:8.8148 
0.1211383387688658 1:13 2:37 3:0.9143 4:0.9999 5:50 6:50 7:26.768 8:26.3713 
1 1:11 2:26 3:0.8899 4:0.9929 5:50 6:50 7:21.1283 8:18.6305 
0.7439494624874599 1:12 2:24 3:0.8266 4:0.9817 5:41.2952 6:50 7:16.0962 8:13.6778 
0.7411650898016431 1:13 2:25 3:0.7797 4:0.9913 5:50 6:50 7:18.5702 8:12.9512 
1 1:5 2:14 3:0.9469 4:0.9993 5:50 6:50 7:17.8593 8:16.1985 
1 1:9 2:27 3:0.9493 4:0.9998 5:50 6:50 7:24.798 8:24.6391 
0.396230356554518 1:12 2:26 3:0.8786 4:0.9979 5:50 6:50 7:23.3921 8:21.1067 
0.4045505946233664 1:11 2:27 3:0.8623 4:0.9981 5:50 6:50 7:23.8591 8:20.5886 
0.9904919030133845 1:14 2:17 3:0.646 4:0.646 5:50 6:50 7:20.5226 8:14.8374 
0.2576476427101259 1:8 2:16 3:0.728 4:0.8384 5:50 6:50 7:19.9733 8:16.4439 
0.03249671950867541 1:5 2:13 3:0.9721 4:0.9997 5:50 6:50 7:17.9256 8:17.5674 
1 1:16 2:26 3:0.7047 4:0.927 5:33.5422 6:50 7:9.6728 8:6.9774 
0.400232265060666 1:8 2:26 3:0.9905 4:1 5:50 6:50 7:22.9503 8:22.9323 
0.2504547814044481 1:4 2:7 3:0.9945 4:0.9987 5:50 6:50 7:10.1161 8:9.0415 
0.6508765123365039 1:13 2:19 3:0.8465 4:0.9928 5:50 6:50 7:15.8139 8:13.0851 
1 1:5 2:15 3:0.9989 4:1 5:53 6:50 7:16.3032 8:16.2727 
1 1:9 2:14 3:0.8256 4:0.8315 5:50 6:50 7:10.7479 8:9.1583 
0.4436540747620605 1:16 2:39 3:0.88 4:0.9992 5:50 6:50 7:28.3236 8:26.4344 
1 1:7 2:8 3:0.9888 4:0.9961 5:50 6:50 7:14.0352 8:13.9813 
0.6820050343399886 1:13 2:28 3:0.8962 4:0.9907 5:50 6:50 7:14.6375 8:12.0456 
0.6236099517845963 1:14 2:23 3:0.8756 4:0.9966 5:50 6:50 7:22.1869 8:20.5637 
0.6965587477750275 1:5 2:13 3:0.9992 4:1 5:50 6:50 7:18.4386 8:18.4224 
1 1:12 2:21 3:0.8765 4:0.9824 5:50 6:50 7:17.785 8:14.9842 
0.7441133820682402 1:10 2:17 3:0.6964 4:0.8534 5:39.0312 6:50 7:13.4549 8:7.5265 
1 1:15 2:17 3:0.6967 4:0.7781 5:50 6:50 7:19.6843 8:11.8033 
1 1:9 2:15 3:0.7531 4:0.8152 5:50 6:50 7:16.2489 8:10.5095 
0.6014633476170047 1:12 2:18 3:0.7386 4:0.778 5:50 6:50 7:20.3652 8:20.1975 
1 1:14 2:15 3:0.7715 4:0.7715 5:24.3571 6:50 7:17.9575 8:15.5142 
0.7386549929720786 1:10 2:11 3:0.6403 4:0.6574 5:50 6:50 7:16.8912 8:14.0435 
0.4427707951778782 1:4 2:6 3:0.9804 4:0.9969 5:50 6:50 7:11.0136 8:10.7962 
0.04784782790443445 1:3 2:6 3:0.989 4:0.9999 5:50 6:50 7:11.618 8:10.947 
1 1:11 2:34 3:0.8813 4:0.9996 5:50 6:50 7:24.1625 8:23.1437 
0.7438672213866485 1:15 2:28 3:0.8522 4:0.9966 5:50 6:50 7:22.8662 8:19.4817 
0.951805788783058 1:15 2:29 3:0.8706 4:0.996 5:50 6:50 7:20.0853 8:17.4049 
0.3512577505965288 1:10 2:19 3:0.8948 4:0.9987 5:50 6:50 7:20.4202 8:18.8137 
0.441702289688944 1:12 2:26 3:0.8416 4:0.9981 5:50 6:50 7:19.5981 8:17.7588 
0.7343454219152834 1:7 2:18 3:0.9172 4:0.9935 5:50 6:50 7:12.436 8:10.7482 
0.04196083983524514 1:6 2:9 3:0.9254 4:0.9975 5:50 6:50 7:14.8177 8:13.9723 
0.5903977299122825 1:2 2:4 3:0.9996 4:0.9997 5:50 6:50 7:9.4121 8:9.3832 
0.7659857897309222 1:3 2:7 3:0.9975 4:0.9999 5:50 6:50 7:14.0724 8:14.0494 
0.07441405364165699 1:7 2:21 3:0.9839 4:0.9991 5:50 6:50 7:20.7401 8:20.7073 
0.3474950725821476 1:8 2:22 3:0.8834 4:0.9923 5:50 6:50 7:22.7808 8:21.7577 
0.7439680506079773 1:14 2:36 3:0.7467 4:0.9838 5:50 6:50 7:16.0594 8:12.2216 
0.638346811264217 1:5 2:12 3:0.9954 4:0.9987 5:50 6:50 7:14.7344 8:14.2275 
1 1:8 2:17 3:0.9349 4:0.995 5:50 6:50 7:17.3695 8:15.1127 
0.2332336141786223 1:4 2:4 3:0.9791 4:0.9904 5:50 6:50 7:10.424 8:7.8361 
0.4087826772112861 1:14 2:37 3:0.8877 4:0.9996 5:50 6:50 7:27.2918 8:25.7382 
0.2457690095227709 1:11 2:30 3:0.8944 4:0.995 5:50 6:50 7:24.5618 8:23.119 
0.7440099423039992 1:16 2:31 3:0.7895 4:0.9621 5:50 6:50 7:19.9216 8:13.7164 
0.06031194050731453 1:5 2:10 3:0.9525 4:0.9983 5:50 6:50 7:12.2508 8:10.906 
0.7439452362782244 1:16 2:44 3:0.8885 4:0.9974 5:50 6:50 7:18.8747 8:17.0781 
0.05011393963007355 1:3 2:7 3:0.9982 4:0.9986 5:50 6:50 7:11.7988 8:11.7802 
0.8263989482510119 1:3 2:8 3:0.9947 4:0.9999 5:50 6:50 7:13.6879 8:13.2509 
1 1:8 2:12 3:0.9337 4:0.9931 5:50 6:50 7:16.2104 8:15.9711 
0.5621301316879899 1:11 2:16 3:0.9456 4:0.997 5:50 6:50 7:17.6768 8:15.7818 
1 1:6 2:17 3:0.9066 4:0.9875 5:50 6:50 7:16.8407 8:14.3624 
0.6054011278021667 1:7 2:17 3:0.9243 4:0.9963 5:50 6:50 7:19.9252 8:17.6241 
1 1:12 2:32 3:0.8137 4:0.9759 5:50 6:50 7:21.2212 8:19.7649 
0.01488229484357831 1:11 2:31 3:0.8604 4:0.9972 5:50 6:50 7:22.4277 8:21.988 
1 1:8 2:21 3:0.9493 4:0.9963 5:50 6:50 7:22.2537 8:21.3238 
1 1:7 2:11 3:0.8886 4:0.9799 5:50 6:50 7:13.4744 8:7.431 
0.5342388106486529 1:7 2:18 3:0.9233 4:0.9971 5:50 6:50 7:19.5458 8:18.7402 
1 1:10 2:16 3:0.7108 4:0.9039 5:50 6:50 7:17.4363 8:12.4832 
0.4541821319339287 1:12 2:16 3:0.667 4:0.7848 5:50 6:50 7:19.8432 8:14.4907 
0.7352792940814447 1:6 2:14 3:0.9554 4:0.9988 5:53 6:50 7:17.8891 8:16.663 
0.08439067047445009 1:6 2:16 3:0.9568 4:0.9966 5:50 6:50 7:17.797 8:13.9638 
0.19953289525988 1:6 2:15 3:0.9436 4:0.9998 5:50 6:50 7:17.3174 8:16.3328 
0.1912937589335553 1:6 2:14 3:0.9417 4:0.9958 5:50 6:50 7:16.7345 8:14.5174 
1 1:6 2:14 3:0.9264 4:0.9958 5:33.9096 6:50 7:15.1339 8:11.8834 
0.4369700603669368 1:6 2:14 3:0.9477 4:0.9957 5:50 6:50 7:15.0661 8:13.3724 
0.5138605272240433 1:6 2:14 3:0.8894 4:0.9975 5:50 6:50 7:16.4285 8:13.262 
1 1:6 2:15 3:0.8861 4:0.998 5:50 6:50 7:13.2784 8:11.7671 
1 1:15 2:31 3:0.7684 4:0.9338 5:38.2408 6:50 7:15.6062 8:11.615 
1 1:12 2:19 3:0.8968 4:0.9354 5:50 6:50 7:10.8501 8:6.0463 
0.4228962546021946 1:11 2:24 3:0.9232 4:0.9993 5:50 6:50 7:22.0741 8:19.8543 
0.6142774166530227 1:3 2:5 3:0.9987 4:0.9999 5:50 6:50 7:13.1179 8:12.7377 
0.0337415898769961 1:5 2:12 3:0.9792 4:0.9925 5:50 6:50 7:17.3546 8:16.908 
0.4570388617715533 1:9 2:14 3:0.9257 4:0.9933 5:50 6:50 7:16.1724 8:14.8771 
0.3304486499991998 1:12 2:25 3:0.8359 4:0.9967 5:50 6:50 7:18.9336 8:15.9225 
1 1:18 2:42 3:0.744 4:0.9658 5:50 6:50 7:24.2163 8:21.1921 
0.08477071101125212 1:3 2:5 3:0.9937 4:0.9987 5:50 6:50 7:11.0132 8:10.3003 
0.2777094988782994 1:13 2:36 3:0.831 4:0.9376 5:50 6:50 7:26.7696 8:25.9472 
1 1:13 2:27 3:0.8017 4:0.9062 5:50 6:50 7:15.4485 8:10.9748 
1 1:13 2:23 3:0.8015 4:0.9825 5:50 6:50 7:19.8832 8:12.9814 
0.7439638769916659 1:14 2:32 3:0.7869 4:0.9686 5:50 6:50 7:19.2838 8:16.5488 
0.6357434865196295 1:6 2:17 3:0.9338 4:0.9996 5:50 6:50 7:20.1977 8:18.094 
0.08243636187315095 1:6 2:15 3:0.9466 4:0.9999 5:50 6:50 7:20.3603 8:19.6728 
0.3568906743612734 1:7 2:16 3:0.901 4:0.9904 5:50 6:50 7:17.3457 8:11.4565 
1 1:10 2:17 3:0.6964 4:0.8534 5:39.0312 6:50 7:13.4549 8:7.5265 
0.146886302345309 1:4 2:10 3:0.9808 4:0.9994 5:50 6:50 7:12.6674 8:10.677 
0.2631620431752896 1:11 2:30 3:0.9657 4:1 5:50 6:50 7:25.074 8:25.0256 
1 1:17 2:32 3:0.8824 4:0.9915 5:38.9485 6:50 7:18.8579 8:15.9645 
1 1:14 2:22 3:0.9202 4:0.9915 5:50 6:50 7:19.969 8:18.1166 
1 1:3 2:4 3:0.9909 4:0.9987 5:50 6:50 7:11.7503 8:10.5562 
0.6969346801142471 1:16 2:35 3:0.8087 4:0.9474 5:50 6:50 7:23.0569 8:19.393 
0.7439806768655004 1:13 2:25 3:0.9024 4:0.9893 5:41.5774 6:50 7:19.792 8:18.2957 
0.7102554415313156 1:12 2:24 3:0.9179 4:0.9964 5:50 6:50 7:20.7535 8:18.3001 
0.7058824377569807 1:13 2:22 3:0.7456 4:0.8779 5:50 6:50 7:18.7421 8:12.0077 
1 1:13 2:22 3:0.6342 4:0.806 5:50 6:50 7:15.4043 8:9.1655 
1 1:3 2:7 3:0.9919 4:0.9989 5:50 6:50 7:10.5709 8:9.9895 
0.4352699933694839 1:3 2:6 3:0.9961 4:0.9995 5:50 6:50 7:11.0136 8:10.6249 
0.4385667416233574 1:7 2:19 3:0.9546 4:0.9993 5:50 6:50 7:19.0755 8:17.2037 
1 1:10 2:25 3:0.8866 4:0.9987 5:50 6:50 7:23.6497 8:18.3262 
1 1:6 2:16 3:0.9542 4:0.9999 5:53 6:50 7:17.7073 8:14.8291 
1 1:3 2:5 3:0.9684 4:0.996 5:50 6:50 7:7.5533 8:6.1145 
1 1:18 2:26 3:0.8691 4:0.9441 5:50 6:50 7:18.0532 8:13.3348 
0.9486220473321156 1:15 2:29 3:0.9212 4:0.9611 5:50 6:50 7:20.1795 8:16.9958 
1 1:5 2:12 3:0.9662 4:0.9983 5:50 6:50 7:17.8101 8:15.3565 
1 1:9 2:20 3:0.7397 4:0.9527 5:50 6:50 7:11.5854 8:8.6815 
0.631708348860742 1:5 2:10 3:0.9243 4:0.9845 5:50 6:50 7:13.0673 8:9.3158 
0.7727390875327718 1:6 2:16 3:0.8906 4:0.9989 5:50 6:50 7:14.9713 8:12.9839 
1 1:6 2:12 3:0.8824 4:0.9805 5:36.0695 6:50 7:13.1066 8:9.8691 
0.2297515314394089 1:6 2:17 3:0.9389 4:0.983 5:50 6:50 7:18.3901 8:18.3578 
0.7001551656156597 1:12 2:29 3:0.9433 4:0.9997 5:50 6:50 7:26.551 8:25.7743 
1 1:12 2:32 3:0.8566 4:0.9983 5:50 6:50 7:26.4023 8:24.2637 
1 1:10 2:24 3:0.9259 4:0.9997 5:50 6:50 7:23.1571 8:21.7025 
1 1:12 2:20 3:0.8254 4:0.9859 5:50 6:50 7:19.948 8:15.8871 
0.09160263971770094 1:6 2:15 3:0.9071 4:0.9479 5:50 6:50 7:14.453 8:13.6418 
1 1:6 2:14 3:0.9304 4:0.9961 5:50 6:50 7:12.0781 8:10.6619 
1 1:6 2:14 3:0.8869 4:0.9929 5:50 6:50 7:9.5895 8:8.6942 
0.3566752071266963 1:5 2:10 3:0.9933 4:0.9993 5:50 6:50 7:15.8939 8:15.7501 
0.1776722551024186 1:4 2:7 3:0.983 4:0.9998 5:50 6:50 7:13.7917 8:12.3707 
0.4355354690255612 1:8 2:21 3:0.9129 4:0.9889 5:50 6:50 7:21.2637 8:18.6386 
1 1:11 2:21 3:0.878 4:0.998 5:50 6:50 7:18.1902 8:15.0627 
0.6255784338796276 1:6 2:14 3:0.9533 4:0.9992 5:50 6:50 7:17.531 8:17.2418 
1 1:6 2:16 3:0.8948 4:0.9878 5:50 6:50 7:11.6872 8:8.5814 
0.566663918146779 1:4 2:8 3:0.9492 4:0.9836 5:50 6:50 7:9.4967 8:8.8772 
0.7175895416685231 1:4 2:9 3:0.9921 4:0.9998 5:50 6:50 7:14.0067 8:11.9826 
0.2056389666023908 1:5 2:6 3:0.9803 4:0.9989 5:50 6:50 7:14.0748 8:14.0433 
1 1:3 2:4 3:0.9736 4:0.9982 5:50 6:50 7:11.095 8:9.8556 
0.7435599538955786 1:13 2:27 3:0.7808 4:0.9395 5:50 6:50 7:13.4996 8:7.3822 
0.4757212634126178 1:7 2:20 3:0.945 4:0.9979 5:50 6:50 7:18.8855 8:16.8013 
0.3605282628797553 1:5 2:9 3:0.9637 4:0.9995 5:50 6:50 7:15.9265 8:12.8737 
0.08818316010764231 1:7 2:18 3:0.8481 4:0.997 5:50 6:50 7:19.4684 8:16.0705 
1 1:13 2:20 3:0.8432 4:0.9919 5:50 6:50 7:10.4362 8:7.9367 
1 1:9 2:18 3:0.8432 4:0.9877 5:50 6:50 7:11.6778 8:8.8848 
0.03323041188526715 1:8 2:19 3:0.9051 4:0.9955 5:50 6:50 7:16.6252 8:13.8654 
1 1:14 2:23 3:0.8191 4:0.9547 5:40.5044 6:50 7:15.3186 8:11.2371 
0.1569447369318723 1:4 2:11 3:0.9983 4:0.9999 5:50 6:50 7:13.8717 8:13.7251 
0.7942079481929011 1:4 2:9 3:0.9837 4:0.9997 5:50 6:50 7:13.0882 8:11.0224 
0.4335339823323248 1:6 2:19 3:0.9832 4:1 5:50 6:50 7:20.5542 8:20.4592 
0.1349899981937874 1:6 2:17 3:0.9109 4:0.9969 5:50 6:50 7:17.2538 8:16.1907 
0.1557692409042905 1:5 2:10 3:0.9858 4:0.9995 5:50 6:50 7:12.5005 8:8.9812 
0.6759209931380639 1:14 2:26 3:0.7583 4:0.905 5:30.5891 6:50 7:15.7113 8:7.6959 
1 1:6 2:12 3:0.9549 4:0.9819 5:39.8874 6:50 7:9.9726 8:6.72 
0.9793265842853136 1:12 2:26 3:0.8416 4:0.9981 5:50 6:50 7:19.5981 8:17.7588 
0.727931019162265 1:11 2:23 3:0.816 4:0.9887 5:50 6:50 7:20.0953 8:15.5485 
1 1:3 2:5 3:0.9653 4:0.9994 5:50 6:50 7:12.5487 8:10.1583 
0.06436828565209989 1:3 2:6 3:0.9885 4:0.9996 5:50 6:50 7:11.3535 8:11.1396 
0.1229150785385662 1:5 2:15 3:0.9971 4:1 5:50 6:50 7:16.3012 8:16.2941 
0.9906220963219864 1:14 2:23 3:0.8756 4:0.9966 5:50 6:50 7:22.1869 8:20.5637 
0.06271143654328937 1:6 2:15 3:0.9424 4:0.9977 5:50 6:50 7:12.833 8:9.9242 
1 1:6 2:13 3:0.9477 4:0.9958 5:50 6:50 7:13.5808 8:12.3447 
1 1:7 2:18 3:0.9762 4:0.9998 5:50 6:50 7:22.1041 8:21.4214 
1 1:7 2:17 3:0.8632 4:0.9819 5:50 6:50 7:14.108 8:12.0174 
0.7933714070578057 1:3 2:4 3:0.9998 4:1 5:50 6:50 7:11.795 8:11.7878 
0.4755970086092103 1:7 2:15 3:0.8889 4:0.8889 5:50 6:50 7:13.0174 8:9.9121 
0.7439614250983175 1:17 2:35 3:0.6882 4:0.8034 5:43.3982 6:50 7:14.2518 8:6.4481 
0.6477970612005607 1:10 2:28 3:0.887 4:0.9926 5:50 6:50 7:20.4705 8:17.7809 
0.8864100903138021 1:6 2:10 3:0.8713 4:0.9424 5:50 6:50 7:11.8311 8:10.5061 
0.7419133980365543 1:5 2:10 3:0.918 4:0.9918 5:39.0623 6:50 7:9.9146 8:6.5295 
0.2932075832943382 1:10 2:21 3:0.8945 4:0.9992 5:50 6:50 7:21.5124 8:17.7695 
0.6588367775750488 1:12 2:28 3:0.9629 4:0.9629 5:50 6:50 7:22.1414 8:18.2043 
1 1:13 2:20 3:0.8373 4:0.9855 5:50 6:50 7:16.8086 8:12.4058 
0.6408141388455884 1:3 2:3 3:0.9949 4:0.998 5:50 6:50 7:9.3824 8:9.3679 
0.0400483505007953 1:3 2:4 3:0.999 4:0.9998 5:50 6:50 7:9.3962 8:9.3773 
0.6384774915666608 1:4 2:11 3:0.9225 4:0.9787 5:50 6:50 7:13.8487 8:13.4579 
1 1:9 2:12 3:0.8517 4:0.8517 5:50 6:50 7:12.9139 8:11.0334 
0.1771773757551818 1:8 2:12 3:0.7677 4:0.7812 5:50 6:50 7:14.4184 8:13.1529 
1 1:4 2:7 3:0.8914 4:0.9986 5:50 6:50 7:9.4195 8:7.2707 
0.1194013742501772 1:7 2:22 3:0.9886 4:1 5:50 6:50 7:22.9553 8:22.9318 
0.7239950396773874 1:3 2:5 3:0.9832 4:0.9832 5:50 6:50 7:11.0884 8:9.3507 
0.4604557317080755 1:7 2:20 3:0.9549 4:0.9994 5:50 6:50 7:22.5477 8:21.8943 
1 1:13 2:26 3:0.8014 4:0.9755 5:50 6:50 7:19.8572 8:17.091 
0.0355037422128761 1:7 2:20 3:0.8947 4:0.9811 5:50 6:50 7:18.8951 8:16.2065 
0.5966576654052629 1:8 2:24 3:0.9311 4:0.9961 5:50 6:50 7:21.6068 8:18.6558 
0.07033568066469331 1:6 2:13 3:0.9761 4:0.9969 5:50 6:50 7:14.2439 8:10.8531 
0.2012825931282123 1:6 2:12 3:0.8999 4:0.966 5:50 6:50 7:14.2859 8:10.8608 
0.1827726458509547 1:4 2:7 3:0.966 4:0.9996 5:50 6:50 7:12.1507 8:10.1247 
0.7439811818311993 1:13 2:20 3:0.9119 4:0.9712 5:32.3339 6:50 7:15.3166 8:9.2477 
0.5418726603500925 1:6 2:15 3:0.9433 4:0.9955 5:50 6:50 7:18.2675 8:16.2799 
0.7440082722105946 1:12 2:21 3:0.8494 4:0.9975 5:39.4681 6:50 7:17.1647 8:16.0595 
0.7440016984688858 1:13 2:22 3:0.7464 4:0.9912 5:34.5743 6:50 7:14.0014 8:12.2925 
0.7427920883128025 1:13 2:30 3:0.7042 4:0.9731 5:50 6:50 7:16.2358 8:11.5249 
0.2636054393932039 1:11 2:26 3:0.8695 4:0.9939 5:50 6:50 7:23.099 8:20.2161 
0.4030634014482561 1:12 2:28 3:0.7913 4:0.9603 5:50 6:50 7:19.8556 8:17.0239 
0.7325129106506864 1:14 2:24 3:0.7494 4:0.9302 5:50 6:50 7:20.9194 8:11.8526 
0.9349131594263296 1:5 2:15 3:0.9911 4:0.9993 5:50 6:50 7:17.8759 8:17.6079 
0.1765924109984869 1:5 2:10 3:0.9767 4:0.9991 5:50 6:50 7:13.1054 8:11.4412 
1 1:7 2:17 3:0.8836 4:0.9963 5:50 6:50 7:10.2844 8:7.0229 
0.5900687226234895 1:15 2:37 3:0.844 4:0.9701 5:50 6:50 7:23.179 8:19.2412 
1 1:20 2:35 3:0.7637 4:0.88 5:21.1147 6:50 7:10.3864 8:5.3719 
0.4777918906507313 1:11 2:19 3:0.8712 4:0.9992 5:50 6:50 7:18.5126 8:17.6845 
0.3706230239114995 1:4 2:8 3:0.9876 4:0.9995 5:50 6:50 7:14.4271 8:13.2791 
1 1:5 2:11 3:0.9951 4:0.9997 5:50 6:50 7:18.2434 8:18.1542 
1 1:9 2:25 3:0.9263 4:0.9909 5:50 6:50 7:21.3937 8:18.884 
0.4726311016037255 1:11 2:19 3:0.9343 4:0.9939 5:50 6:50 7:21.0392 8:15.5184 
0.1979358237466146 1:10 2:23 3:0.862 4:0.9873 5:50 6:50 7:24.0685 8:22.6033 
1 1:11 2:28 3:0.8066 4:0.9221 5:50 6:50 7:13.5211 8:10.5802 
1 1:10 2:24 3:0.9557 4:0.9999 5:50 6:50 7:24.1964 8:23.8877 
0.6739051081947153 1:15 2:26 3:0.7851 4:0.9548 5:29.2551 6:50 7:16.2986 8:7.4854 
1 1:7 2:13 3:0.7217 4:0.8196 5:37.4463 6:50 7:11.932 8:8.1337 
0.03904191028910469 1:7 2:18 3:0.9327 4:0.9817 5:50 6:50 7:19.7213 8:17.9337 
0.7439971027152463 1:14 2:23 3:0.8396 4:0.9737 5:22.807 6:50 7:14.1744 8:9.3497 
0.6291658842453474 1:8 2:13 3:0.9428 4:0.9974 5:50 6:50 7:18.0316 8:17.6373 
0.08590869415755888 1:4 2:8 3:0.9986 4:0.9996 5:50 6:50 7:14.0811 8:14.0683 
0.7023174163783922 1:6 2:19 3:0.9773 4:0.9999 5:50 6:50 7:18.3853 8:18.261 
0.7440066192009414 1:14 2:25 3:0.8032 4:0.981 5:37.7363 6:50 7:19.0803 8:11.8785 
0.5048888695837093 1:5 2:11 3:0.9781 4:0.9995 5:50 6:50 7:16.1972 8:14.7024 
0.9805871729212861 1:11 2:19 3:0.9343 4:0.9939 5:50 6:50 7:21.0392 8:15.5184 
0.9787965986974643 1:11 2:16 3:0.9456 4:0.997 5:50 6:50 7:17.6768 8:15.7818 
0.9994108080177131 1:5 2:10 3:0.918 4:0.9918 5:39.0623 6:50 7:9.9146 8:6.5295 
0.09137472813466495 1:5 2:11 3:0.9895 4:0.9996 5:50 6:50 7:14.6578 8:14.2564 
1 1:14 2:23 3:0.8396 4:0.9737 5:22.807 6:50 7:14.1744 8:9.3497 
0.1130148849689919 1:7 2:15 3:0.8894 4:0.9914 5:50 6:50 7:12.8987 8:11.3608 
0.4867274385293833 1:10 2:26 3:0.9497 4:0.9999 5:50 6:50 7:24.6852 8:23.803 
0.6983713801766462 1:8 2:24 3:0.8722 4:0.8984 5:50 6:50 7:12.2567 8:6.5569 
1 1:16 2:44 3:0.8885 4:0.9974 5:50 6:50 7:18.8747 8:17.0781 
1 1:11 2:31 3:0.8604 4:0.9972 5:50 6:50 7:22.4277 8:21.988 
0.9461597135217054 1:4 2:5 3:0.995 4:0.9997 5:50 6:50 7:12.7141 8:12.3701 
1 1:12 2:24 3:0.8266 4:0.9817 5:41.2952 6:50 7:16.0962 8:13.6778 
0.7439553362739584 1:17 2:30 3:0.745 4:0.9293 5:50 6:50 7:14.7592 8:7.0489 
0.9987408715202117 1:6 2:14 3:0.9554 4:0.9988 5:53 6:50 7:17.8891 8:16.663 
0.1903547785973941 1:8 2:24 3:0.9362 4:0.9997 5:50 6:50 7:22.8576 8:22.4924 
0.2313503596138083 1:6 2:13 3:0.9311 4:0.9958 5:50 6:50 7:16.0865 8:13.5839 
0.1260261976279483 1:3 2:4 3:0.9987 4:1 5:50 6:50 7:10.8957 8:10.1151 
0.9809587843406116 1:13 2:38 3:0.9273 4:0.9994 5:50 6:50 7:29.3444 8:29.0309 
1 1:8 2:19 3:0.9051 4:0.9955 5:50 6:50 7:16.6252 8:13.8654 
0.4830299429544491 1:2 2:5 3:0.9999 4:1 5:50 6:50 7:11.7815 8:11.7695 
0.09435437484322247 1:6 2:14 3:0.9479 4:0.9975 5:50 6:50 7:15.4196 8:14.1201 
0.6999378868680208 1:6 2:17 3:0.9656 4:0.9998 5:50 6:50 7:17.4012 8:17.0125 
0.3638693939095533 1:6 2:12 3:0.9717 4:0.9987 5:50 6:50 7:16.639 8:15.0532 
0.5618787301803432 1:11 2:17 3:0.7546 4:0.8188 5:50 6:50 7:13.9202 8:12.0067 
0.4355831326984739 1:11 2:31 3:0.9355 4:0.9875 5:50 6:50 7:25.0468 8:24.9588 
0.9982561670939121 1:14 2:37 3:0.8877 4:0.9996 5:50 6:50 7:27.2918 8:25.7382 
0.9762542132008308 1:11 2:30 3:0.9657 4:1 5:50 6:50 7:25.074 8:25.0256 
1 1:12 2:25 3:0.8359 4:0.9967 5:50 6:50 7:18.9336 8:15.9225 
0.8406820189480726 1:4 2:8 3:0.9904 4:0.9994 5:50 6:50 7:13.0166 8:12.5123 
0.7482144885964669 1:14 2:18 3:0.7514 4:0.879 5:50 6:50 7:13.9879 8:10.7705 
0.8430428814379063 1:5 2:12 3:0.9554 4:0.9968 5:50 6:50 7:14.9999 8:12.5209 
1 1:7 2:21 3:0.9839 4:0.9991 5:50 6:50 7:20.7401 8:20.7073 
1 1:7 2:22 3:0.9886 4:1 5:50 6:50 7:22.9553 8:22.9318 
0.6200582718262687 1:13 2:22 3:0.8757 4:0.9918 5:50 6:50 7:19.8527 8:16.0546 
0.7449369693824197 1:11 2:20 3:0.8171 4:0.9882 5:37.271 6:50 7:14.9715 8:12.3946 
0.2393072719387581 1:5 2:11 3:0.9669 4:0.9958 5:50 6:50 7:14.8375 8:13.2433 
1 1:8 2:26 3:0.9905 4:1 5:50 6:50 7:22.9503 8:22.9323 
0.7018683565035764 1:5 2:12 3:0.9543 4:0.9848 5:50 6:50 7:15.1212 8:14.8309 
0.01519830939662112 1:6 2:14 3:0.9246 4:0.9975 5:50 6:50 7:17.4334 8:16.2359 
0.6329514526811157 1:10 2:15 3:0.9337 4:0.9967 5:50 6:50 7:17.3095 8:14.1482 
0.7535529500412806 1:11 2:31 3:0.916 4:0.9996 5:50 6:50 7:24.889 8:24.2716 
1 1:7 2:16 3:0.8964 4:0.9953 5:35.1371 6:50 7:16.5041 8:14.2956 
0.9949847215983834 1:10 2:15 3:0.9337 4:0.9967 5:50 6:50 7:17.3095 8:14.1482 
0.7439974767056825 1:7 2:17 3:0.8236 4:0.9837 5:38.9724 6:50 7:14.9811 8:10.4629 
0.9908292981290964 1:11 2:27 3:0.8623 4:0.9981 5:50 6:50 7:23.8591 8:20.5886 
0.974349177833796 1:11 2:24 3:0.9232 4:0.9993 5:50 6:50 7:22.0741 8:19.8543 
1 1:5 2:10 3:0.9585 4:0.9974 5:50 6:50 7:11.0857 8:7.2577 
0.3604143028006207 1:4 2:5 3:0.9885 4:0.9988 5:50 6:50 7:12.3628 8:11.6306 
0.3764557688466674 1:9 2:16 3:0.8559 4:0.8766 5:50 6:50 7:15.0752 8:11.5363 
0.9992625442173742 1:13 2:25 3:0.7797 4:0.9913 5:50 6:50 7:18.5702 8:12.9512 
1 1:13 2:19 3:0.8465 4:0.9928 5:50 6:50 7:15.8139 8:13.0851 
0.7395910867570179 1:17 2:39 3:0.7602 4:0.9928 5:50 6:50 7:26.24 8:24.9541 
1 1:8 2:12 3:0.9337 4:0.9931 5:50 6:50 7:16.2104 8:15.9711 
0.7367090104869386 1:4 2:10 3:0.9783 4:0.9999 5:50 6:50 7:15.0389 8:13.6069 
0.2994582799838382 1:6 2:16 3:0.8989 4:0.9859 5:50 6:50 7:15.9562 8:14.0356 
0.5431011440978421 1:5 2:11 3:0.9188 4:0.9503 5:50 6:50 7:13.2866 8:13.1331 
0.74057260277962 1:7 2:12 3:0.7244 4:0.8292 5:35.4044 6:50 7:14.3945 8:11.3921 
0.1737391241831515 1:4 2:9 3:0.9976 4:0.9982 5:50 6:50 7:15.5949 8:15.2265 
0.2760093747576393 1:6 2:13 3:0.9156 4:0.9964 5:50 6:50 7:11.6147 8:9.2701 
0.5503539170834287 1:4 2:10 3:0.9731 4:0.9995 5:50 6:50 7:12.7062 8:11.8357 
0.7439986688209004 1:8 2:14 3:0.9158 4:0.992 5:29.865 6:50 7:17.407 8:13.6295 
0.3576791626141244 1:6 2:19 3:0.9613 4:0.9998 5:50 6:50 7:18.791 8:18.2212 
0.7439802780798516 1:18 2:24 3:0.6252 4:0.7765 5:21.8919 6:50 7:10.1037 8:7.4083 
0.353342997997481 1:6 2:15 3:0.8725 4:0.9814 5:50 6:50 7:10.4781 8:8.2739 
0.9846997232052772 1:3 2:7 3:0.9982 4:0.9986 5:50 6:50 7:11.7988 8:11.7802 
0.2596598985847477 1:12 2:25 3:0.924 4:0.9997 5:50 6:50 7:22.9461 8:22.6972 
0.8921235248136409 1:12 2:26 3:0.8947 4:0.9932 5:50 6:50 7:21.1564 8:19.0702 
0.6105032342453705 1:13 2:15 3:0.5985 4:0.6236 5:30.6114 6:50 7:20.2249 8:17.4572 
0.1937647496853835 1:5 2:11 3:0.9777 4:0.9998 5:50 6:50 7:15.4178 8:14.4222 
1 1:6 2:17 3:0.9259 4:0.9993 5:50 6:50 7:18.8424 8:15.6768 
0.4859535350988329 1:4 2:9 3:0.9953 4:0.9974 5:50 6:50 7:14.0679 8:14.0623 
0.4759502276276882 1:2 2:3 3:0.9964 4:0.9997 5:50 6:50 7:8.7156 8:8.2355 
1 1:13 2:22 3:0.7456 4:0.8779 5:50 6:50 7:18.7421 8:12.0077 
0.9886881688224047 1:6 2:15 3:0.8725 4:0.9814 5:50 6:50 7:10.4781 8:8.2739 
0.1722233840029359 1:4 2:8 3:0.9681 4:0.9954 5:50 6:50 7:12.9481 8:10.9518 
0.5126968498423391 1:6 2:13 3:0.9292 4:0.9986 5:50 6:50 7:14.4677 8:12.7278 
0.6374704337825803 1:16 2:35 3:0.7551 4:0.935 5:50 6:50 7:22.7173 8:17.2115 
0.9797518364542188 1:5 2:9 3:0.9637 4:0.9995 5:50 6:50 7:15.9265 8:12.8737 
1 1:12 2:29 3:0.9433 4:0.9997 5:50 6:50 7:26.551 8:25.7743 
0.2584857735077403 1:5 2:14 3:0.98 4:0.9993 5:50 6:50 7:17.544 8:17.1523 
0.6113526954160142 1:8 2:13 3:0.8293 4:0.9543 5:32.5402 6:50 7:9.7314 8:5.0429 
0.5952298651502552 1:6 2:16 3:0.9167 4:0.9972 5:50 6:50 7:15.4433 8:14.1399 
0.2083918427126767 1:10 2:21 3:0.8315 4:0.9451 5:50 6:50 7:20.9034 8:16.9982 
0.743977520172596 1:16 2:23 3:0.7184 4:0.8312 5:23.7495 6:50 7:15.3679 8:6.7445 
0.7439362342921128 1:4 2:8 3:0.9876 4:0.9884 5:31.7078 6:50 7:9.3647 8:7.6415 
0.02476295573370291 1:6 2:14 3:0.9105 4:0.9744 5:50 6:50 7:10.6317 8:9.1227 
0.0652556393242128 1:5 2:15 3:0.895 4:0.9517 5:50 6:50 7:16.2104 8:16.1684 
1 1:14 2:32 3:0.7869 4:0.9686 5:50 6:50 7:19.2838 8:16.5488 
0.8793442307350795 1:10 2:23 3:0.8039 4:0.935 5:50 6:50 7:21.9759 8:20.8912 
0.9847563324988347 1:8 2:13 3:0.8293 4:0.9543 5:32.5402 6:50 7:9.7314 8:5.0429 
0.6395587223908461 1:13 2:19 3:0.6849 4:0.7698 5:50 6:50 7:20.6377 8:20.4163 
0.7439986710818262 1:7 2:17 3:0.7614 4:0.8556 5:27.5674 6:50 7:17.8423 8:12.9642 
0.9784001708894563 1:8 2:12 3:0.7677 4:0.7812 5:50 6:50 7:14.4184 8:13.1529 
0.8091606666441186 1:5 2:11 3:0.9393 4:0.9789 5:50 6:50 7:13.5494 8:12.0788 
1 1:7 2:16 3:0.901 4:0.9904 5:50 6:50 7:17.3457 8:11.4565 
0.9806573994139674 1:11 2:17 3:0.7546 4:0.8188 5:50 6:50 7:13.9202 8:12.0067 
1 1:13 2:25 3:0.9024 4:0.9893 5:41.5774 6:50 7:19.792 8:18.2957 
0.5853912786266879 1:5 2:12 3:0.9313 4:0.9795 5:50 6:50 7:16.7812 8:11.3654 
0.7985914598124655 1:10 2:22 3:0.783 4:0.8691 5:50 6:50 7:23.7584 8:22.2611 
1 1:7 2:15 3:0.8889 4:0.8889 5:50 6:50 7:13.0174 8:9.9121 
0.4221238668675005 1:10 2:18 3:0.8918 4:0.9898 5:50 6:50 7:17.191 8:15.0933 
1 1:12 2:26 3:0.8786 4:0.9979 5:50 6:50 7:23.3921 8:21.1067 
0.9386173805629141 1:9 2:16 3:0.8559 4:0.8766 5:50 6:50 7:15.0752 8:11.5363 
0.1531148563615995 1:4 2:7 3:0.9992 4:1 5:50 6:50 7:11.8216 8:11.8201 
0.8018353699153057 1:3 2:3 3:0.9988 4:0.9988 5:50 6:50 7:9.3563 8:8.6456 
0.5686980433124267 1:12 2:26 3:0.8422 4:0.9969 5:50 6:50 7:21.5105 8:16.8355 
0.9924082559082297 1:13 2:36 3:0.831 4:0.9376 5:50 6:50 7:26.7696 8:25.9472 
0.08468268995218471 1:7 2:19 3:0.9687 4:0.9999 5:50 6:50 7:20.3269 8:20.0834 
1 1:10 2:18 3:0.8918 4:0.9898 5:50 6:50 7:17.191 8:15.0933 
0.5614261592506913 1:9 2:25 3:0.864 4:0.9954 5:50 6:50 7:20.4327 8:17.9253 
0.4026372785528837 1:7 2:16 3:0.892 4:0.9983 5:50 6:50 7:18.8511 8:16.7881 
0.6322715136385062 1:5 2:12 3:0.9649 4:0.9997 5:50 6:50 7:15.614 8:14.006 
0.2430546813052197 1:3 2:6 3:0.9951 4:0.9998 5:50 6:50 7:13.6514 8:12.7129 
0.02698498200671782 1:7 2:18 3:0.8568 4:0.9832 5:50 6:50 7:20.0468 8:18.3511 
0.1990935725302799 1:12 2:26 3:0.8299 4:0.965 5:50 6:50 7:18.9288 8:15.5476 
0.5051544727438958 1:6 2:16 3:0.9177 4:0.9989 5:50 6:50 7:17.0915 8:16.885 
0.9907702218703474 1:9 2:25 3:0.864 4:0.9954 5:50 6:50 7:20.4327 8:17.9253 
1 1:2 2:3 3:0.9964 4:0.9997 5:50 6:50 7:8.7156 8:8.2355 
0.1708996715203363 1:7 2:17 3:0.8764 4:0.9226 5:50 6:50 7:16.8519 8:15.3172 
0.7306279335689079 1:12 2:16 3:0.7596 4:0.7691 5:50 6:50 7:20.6151 8:17.8283 
0.5125451624114045 1:4 2:10 3:0.9982 4:1 5:50 6:50 7:16.3038 8:16.2986 
1 1:16 2:23 3:0.7184 4:0.8312 5:23.7495 6:50 7:15.3679 8:6.7445 
0.6305852405076319 1:3 2:5 3:0.9624 4:0.9985 5:50 6:50 7:10.5676 8:7.3618 
1 1:12 2:24 3:0.9179 4:0.9964 5:50 6:50 7:20.7535 8:18.3001 
1 1:10 2:23 3:0.862 4:0.9873 5:50 6:50 7:24.0685 8:22.6033 
0.9974268616236552 1:12 2:16 3:0.667 4:0.7848 5:50 6:50 7:19.8432 8:14.4907 
0.7582496433407259 1:3 2:6 3:0.9844 4:0.9982 5:50 6:50 7:13.1538 8:11.7357 
0.6023178169715373 1:13 2:16 3:0.6349 4:0.7161 5:29.4776 6:50 7:20.1012 8:17.2128 
0.9896249706410452 1:16 2:39 3:0.88 4:0.9992 5:50 6:50 7:28.3236 8:26.4344 
0.9915837521214037 1:15 2:37 3:0.844 4:0.9701 5:50 6:50 7:23.179 8:19.2412 
0.92938786949326 1:2 2:4 3:0.9976 4:0.9983 5:50 6:50 7:11.8012 8:11.7923 
0.9978277643587222 1:11 2:19 3:0.8712 4:0.9992 5:50 6:50 7:18.5126 8:17.6845 
0.9991389502917905 1:7 2:18 3:0.9172 4:0.9935 5:50 6:50 7:12.436 8:10.7482 
0.007711027392995173 1:4 2:7 3:0.97 4:0.9961 5:50 6:50 7:12.6648 8:11.3006 
1 1:12 2:23 3:0.899 4:0.9965 5:50 6:50 7:22.4961 8:20.2665 
0.995217842955616 1:13 2:22 3:0.8757 4:0.9918 5:50 6:50 7:19.8527 8:16.0546 
1 1:10 2:21 3:0.8315 4:0.9451 5:50 6:50 7:20.9034 8:16.9982 
1 1:13 2:20 3:0.9119 4:0.9712 5:32.3339 6:50 7:15.3166 8:9.2477 
0.9716952808086357 1:6 2:12 3:0.8999 4:0.966 5:50 6:50 7:14.2859 8:10.8608 
0.7774792273317412 1:6 2:15 3:0.8305 4:0.9881 5:50 6:50 7:15.5166 8:9.9663 
0.9551769609200775 1:2 2:4 3:0.9951 4:0.9987 5:50 6:50 7:10.7389 8:9.6547 
0.9907749693752481 1:6 2:16 3:0.9568 4:0.9966 5:50 6:50 7:17.797 8:13.9638 
0.328765066567002 1:3 2:6 3:0.999 4:0.9999 5:50 6:50 7:14.0625 8:14.0519 
0.7650609579013172 1:4 2:10 3:0.9695 4:1 5:50 6:50 7:13.4988 8:12.7064 
0.7049829818045339 1:5 2:13 3:0.922 4:0.9915 5:50 6:50 7:11.7011 8:7.6189 
0.2573502932250931 1:12 2:21 3:0.909 4:0.9957 5:50 6:50 7:19.5265 8:15.469 
0.3970494219955417 1:9 2:13 3:0.962 4:0.9931 5:50 6:50 7:17.7437 8:15.8861 
0.7694480750192922 1:9 2:22 3:0.9326 4:0.9991 5:50 6:50 7:21.8277 8:20.0952 
0.9720894369306488 1:4 2:8 3:0.9492 4:0.9836 5:50 6:50 7:9.4967 8:8.8772 
0.3767892077275135 1:7 2:18 3:0.9382 4:0.9988 5:50 6:50 7:20.5048 8:19.6078 
0.74476086173789 1:13 2:21 3:0.8583 4:0.975 5:41.5895 6:50 7:16.7039 8:12.002 
1 1:12 2:18 3:0.7386 4:0.778 5:50 6:50 7:20.3652 8:20.1975 
0.336004598029687 1:7 2:17 3:0.9542 4:0.9997 5:50 6:50 7:18.3392 8:18.1623 
0.3170257105381771 1:4 2:12 3:0.9596 4:0.9869 5:50 6:50 7:16.1576 8:16.0993 
0.7439194829434979 1:14 2:20 3:0.7254 4:0.8465 5:50 6:50 7:13.6147 8:7.7586 
0.9567019043611342 1:6 2:13 3:0.8952 4:0.992 5:50 6:50 7:16.9229 8:14.2483 
0.5332160642905548 1:6 2:11 3:0.712 4:0.7727 5:50 6:50 7:11.5328 8:8.9023 
0.7440061577351969 1:14 2:28 3:0.8646 4:0.9872 5:37.2492 6:50 7:16.6694 8:12.4359 
0.5403646981154723 1:5 2:13 3:0.9947 4:1 5:50 6:50 7:16.181 8:16.1485 
0.9922688766339951 1:11 2:18 3:0.8909 4:0.993 5:50 6:50 7:20.2186 8:15.33 
1 1:5 2:15 3:0.895 4:0.9517 5:50 6:50 7:16.2104 8:16.1684 
0.744008775428477 1:6 2:12 3:0.9233 4:0.9886 5:35.0967 6:50 7:16.6328 8:14.3616 
0.7305933480675756 1:11 2:13 3:0.8617 4:0.8617 5:50 6:50 7:17.518 8:13.5516 
0.009311167156330735 1:4 2:8 3:0.9802 4:0.9995 5:50 6:50 7:15.8289 8:14.5683 
0.4543752244365296 1:12 2:31 3:0.9008 4:0.9987 5:50 6:50 7:21.608 8:19.9543 
0.01276306561507176 1:4 2:7 3:0.9789 4:0.9973 5:50 6:50 7:11.0857 8:9.6105 
0.7439594545303518 1:22 2:38 3:0.6842 4:0.9399 5:37.0461 6:50 7:14.2573 8:9.4877 
0.5704077332744564 1:11 2:29 3:0.7899 4:0.9519 5:50 6:50 7:20.1075 8:15.7485 
0.008269949319510301 1:7 2:19 3:0.9541 4:0.9989 5:50 6:50 7:20.5886 8:19.7842 
0.666876612503433 1:12 2:28 3:0.7791 4:0.9777 5:50 6:50 7:17.1645 8:15.1811 
0.9239273102316484 1:6 2:19 3:0.9317 4:0.9939 5:50 6:50 7:17.3593 8:15.4779 
0.3321345549564668 1:7 2:15 3:0.9291 4:0.9942 5:50 6:50 7:16.4736 8:13.5399 
0.1082282846490194 1:5 2:14 3:0.9792 4:0.9999 5:50 6:50 7:17.9232 8:17.8285 
1 1:18 2:24 3:0.6252 4:0.7765 5:21.8919 6:50 7:10.1037 8:7.4083 
1 1:8 2:14 3:0.9158 4:0.992 5:29.865 6:50 7:17.407 8:13.6295 
1 1:5 2:13 3:0.922 4:0.9915 5:50 6:50 7:11.7011 8:7.6189 
1 1:6 2:17 3:0.9066 4:0.9875 5:50 6:50 7:16.8407 8:14.3624 
0.9126987962395293 1:10 2:23 3:0.8931 4:0.997 5:50 6:50 7:22.2644 8:20.099 
0.6439887046187544 1:2 2:5 3:0.9998 4:1 5:50 6:50 7:11.625 8:11.6041 
1 1:12 2:21 3:0.8494 4:0.9975 5:39.4681 6:50 7:17.1647 8:16.0595 
0.4955207752856948 1:6 2:15 3:0.8527 4:0.9875 5:50 6:50 7:16.0536 8:15.1009 
0.9901071348499604 1:16 2:35 3:0.7551 4:0.935 5:50 6:50 7:22.7173 8:17.2115 
0.1472365239669801 1:4 2:6 3:0.9638 4:0.9993 5:50 6:50 7:12.6478 8:11.0205 
1 1:7 2:17 3:0.7614 4:0.8556 5:27.5674 6:50 7:17.8423 8:12.9642 
0.9991358226981889 1:5 2:12 3:0.9792 4:0.9925 5:50 6:50 7:17.3546 8:16.908 
0.4952165151284768 1:7 2:18 3:0.911 4:0.9521 5:50 6:50 7:17.3701 8:15.5608 
0.7898068085112605 1:5 2:13 3:0.9047 4:0.9937 5:50 6:50 7:18.1096 8:17.1172 
0.2594853103946113 1:6 2:18 3:0.9694 4:0.9991 5:50 6:50 7:20.0858 8:18.8926 
0.7439985282208889 1:6 2:14 3:0.9052 4:0.9905 5:29.1918 6:50 7:13.4629 8:11.2567 
1 1:14 2:20 3:0.7254 4:0.8465 5:50 6:50 7:13.6147 8:7.7586 
0.8365710821976977 1:21 2:29 3:0.6726 4:0.7609 5:14.0897 6:50 7:5.3742 8:3.0407 
0.4645174519473447 1:3 2:4 3:0.9984 4:0.9999 5:50 6:50 7:11.0764 8:10.9532 
0.9987462539009715 1:12 2:16 3:0.7596 4:0.7691 5:50 6:50 7:20.6151 8:17.8283 
0.7885725925273944 1:5 2:12 3:0.9604 4:0.9986 5:50 6:50 7:12.3276 8:11.0914 
0.537846564207408 1:7 2:19 3:0.9177 4:0.998 5:50 6:50 7:20.1922 8:19.2694 
1 1:6 2:15 3:0.9466 4:0.9999 5:50 6:50 7:20.3603 8:19.6728 
0.9796370360809499 1:12 2:31 3:0.9008 4:0.9987 5:50 6:50 7:21.608 8:19.9543 
1 1:15 2:28 3:0.8522 4:0.9966 5:50 6:50 7:22.8662 8:19.4817 
1 1:17 2:35 3:0.6882 4:0.8034 5:43.3982 6:50 7:14.2518 8:6.4481 
0.9993541875842503 1:11 2:23 3:0.816 4:0.9887 5:50 6:50 7:20.0953 8:15.5485 
0.9990082663330344 1:17 2:39 3:0.7602 4:0.9928 5:50 6:50 7:26.24 8:24.9541 
1 1:6 2:14 3:0.9052 4:0.9905 5:29.1918 6:50 7:13.4629 8:11.2567 
0.6903433504577837 1:7 2:12 3:0.7815 4:0.8317 5:50 6:50 7:16.1777 8:12.2856 
0.9928645393204998 1:9 2:12 3:0.9008 4:0.9371 5:33.1138 6:50 7:9.8474 8:4.8647 
0.9871330880949649 1:8 2:21 3:0.9129 4:0.9889 5:50 6:50 7:21.2637 8:18.6386 
0.7439993285029622 1:11 2:14 3:0.7372 4:0.7737 5:33.2417 6:50 7:17.9552 8:15.3816 
1 1:13 2:28 3:0.8962 4:0.9907 5:50 6:50 7:14.6375 8:12.0456 
0.9994920321824817 1:11 2:26 3:0.8695 4:0.9939 5:50 6:50 7:23.099 8:20.2161 
0.9639507612704812 1:8 2:18 3:0.8514 4:0.9574 5:50 6:50 7:15.7327 8:14.2772 
0.7449917815626337 1:2 2:3 3:0.9999 4:0.9999 5:50 6:50 7:9.4565 8:9.4448 
1 1:17 2:30 3:0.745 4:0.9293 5:50 6:50 7:14.7592 8:7.0489 
0.8214051770145305 1:12 2:17 3:0.7064 4:0.7347 5:50 6:50 7:20.2963 8:19.8326 
0.9991601132375569 1:14 2:18 3:0.7514 4:0.879 5:50 6:50 7:13.9879 8:10.7705 
0.7856540859281302 1:4 2:11 3:0.9681 4:0.9861 5:50 6:50 7:14.5586 8:14.2385 
0.98734024790248 1:12 2:26 3:0.8422 4:0.9969 5:50 6:50 7:21.5105 8:16.8355 
0.146367825492274 1:9 2:25 3:0.8555 4:0.998 5:50 6:50 7:22.733 8:21.6619 
0.9941451751221957 1:12 2:28 3:0.7791 4:0.9777 5:50 6:50 7:17.1645 8:15.1811 
1 1:15 2:26 3:0.7851 4:0.9548 5:29.2551 6:50 7:16.2986 8:7.4854 
1 1:16 2:35 3:0.8087 4:0.9474 5:50 6:50 7:23.0569 8:19.393 
0.9895540827418541 1:6 2:16 3:0.9314 4:0.9653 5:50 6:50 7:14.3168 8:11.4892 
0.9836412901963798 1:11 2:17 3:0.8423 4:0.8668 5:50 6:50 7:14.337 8:10.4766 
0.9846136920303933 1:13 2:15 3:0.5985 4:0.6236 5:30.6114 6:50 7:20.2249 8:17.4572 
0.9985739274315204 1:9 2:29 3:0.9707 4:0.9999 5:50 6:50 7:25.0444 8:24.9433 
1 1:6 2:9 3:0.9254 4:0.9975 5:50 6:50 7:14.8177 8:13.9723 
0.4879208620382069 1:6 2:18 3:0.9455 4:0.9988 5:50 6:50 7:20.2825 8:19.7724 
0.6223973369348237 1:13 2:32 3:0.7803 4:0.9548 5:50 6:50 7:24.2058 8:22.3854 
0.5834702878462781 1:5 2:7 3:0.975 4:0.9911 5:50 6:50 7:12.9509 8:12.6543 
0.5381368686886082 1:12 2:23 3:0.906 4:0.9988 5:50 6:50 7:22.159 8:20.1788 
0.991990542292803 1:7 2:18 3:0.8917 4:0.9642 5:50 6:50 7:15.7407 8:15.0269 
0.9992225817069984 1:7 2:12 3:0.7244 4:0.8292 5:35.4044 6:50 7:14.3945 8:11.3921 
1 1:7 2:18 3:0.8481 4:0.997 5:50 6:50 7:19.4684 8:16.0705 
1 1:6 2:13 3:0.9156 4:0.9964 5:50 6:50 7:11.6147 8:9.2701 
0.4742381754956206 1:11 2:22 3:0.911 4:0.9982 5:50 6:50 7:21.8812 8:20.9871 
0.8036317849379367 1:12 2:30 3:0.9123 4:0.9992 5:50 6:50 7:24.1032 8:22.5682 
0.9864590549911966 1:6 2:13 3:0.9761 4:0.9969 5:50 6:50 7:14.2439 8:10.8531 
0.4314792404434304 1:7 2:17 3:0.8977 4:0.9853 5:50 6:50 7:19.1467 8:16.3649 
0.6491695117337841 1:12 2:29 3:0.8724 4:0.9915 5:50 6:50 7:23.7548 8:21.5009 
0.9569525000946484 1:7 2:18 3:0.9747 4:0.9997 5:50 6:50 7:17.7217 8:17.1459 
1 1:23 2:55 3:0.7302 4:0.9525 5:50 6:50 7:14.8208 8:13.2343 
0.980478507427696 1:7 2:13 3:0.8518 4:0.9285 5:50 6:50 7:12.5977 8:9.4407 
0.6405136948355868 1:5 2:15 3:0.993 4:0.9995 5:50 6:50 7:18.554 8:18.5453 
0.04380094927332258 1:7 2:16 3:0.9412 4:0.9901 5:50 6:50 7:16.9071 8:14.5726 
0.593380938184617 1:4 2:8 3:0.9862 4:0.9991 5:50 6:50 7:13.1054 8:12.8253 
0.9861360612985715 1:13 2:19 3:0.6849 4:0.7698 5:50 6:50 7:20.6377 8:20.4163 
0.9689046225366218 1:8 2:16 3:0.728 4:0.8384 5:50 6:50 7:19.9733 8:16.4439 
0.3493793971110845 1:8 2:16 3:0.8577 4:0.9677 5:50 6:50 7:17.4477 8:12.0565 
0.3013894391452763 1:5 2:12 3:0.9868 4:0.9999 5:50 6:50 7:15.7967 8:15.6394 
1 1:14 2:36 3:0.7467 4:0.9838 5:50 6:50 7:16.0594 8:12.2216 
0.7405390321434249 1:4 2:5 3:0.8192 4:0.8419 5:50 6:50 7:12.0778 8:8.3895 
0.6558401580088727 1:14 2:18 3:0.7246 4:0.7834 5:50 6:50 7:20.0333 8:16.1211 
0.008537137915885725 1:4 2:6 3:0.9955 4:0.9976 5:50 6:50 7:10.661 8:9.0632 
1 1:12 2:28 3:0.9629 4:0.9629 5:50 6:50 7:22.1414 8:18.2043 
0.9252629590571642 1:4 2:10 3:0.9808 4:0.9994 5:50 6:50 7:12.6674 8:10.677 
0.9918410054715592 1:12 2:21 3:0.909 4:0.9957 5:50 6:50 7:19.5265 8:15.469 
1 1:6 2:15 3:0.8305 4:0.9881 5:50 6:50 7:15.5166 8:9.9663 
0.9795424890307858 1:11 2:22 3:0.911 4:0.9982 5:50 6:50 7:21.8812 8:20.9871 
0.608763216247372 1:2 2:4 3:0.9959 4:0.9997 5:50 6:50 7:10.1936 8:10.0784 
0.9983201318411528 1:14 2:24 3:0.7494 4:0.9302 5:50 6:50 7:20.9194 8:11.8526 
1 1:12 2:25 3:0.924 4:0.9997 5:50 6:50 7:22.9461 8:22.6972 
0.5660153545276883 1:5 2:9 3:0.9703 4:0.9992 5:50 6:50 7:13.0225 8:11.6384 
1 1:11 2:14 3:0.7372 4:0.7737 5:33.2417 6:50 7:17.9552 8:15.3816 
0.9591284263008896 1:12 2:29 3:0.8724 4:0.9915 5:50 6:50 7:23.7548 8:21.5009 
0.9814658182592126 1:6 2:15 3:0.9424 4:0.9977 5:50 6:50 7:12.833 8:9.9242 
0.1327135820360146 1:12 2:31 3:0.8692 4:0.9995 5:50 6:50 7:22.9089 8:21.9366 
0.749107253247279 1:3 2:8 3:0.9974 4:0.9992 5:50 6:50 7:14.081 8:14.0609 
0.8989202821794204 1:5 2:11 3:0.8509 4:0.9154 5:50 6:50 7:12.796 8:10.2355 
1 1:13 2:22 3:0.7464 4:0.9912 5:34.5743 6:50 7:14.0014 8:12.2925 
0.848776655478937 1:6 2:17 3:0.9826 4:0.9993 5:50 6:50 7:20.0973 8:19.8857 
0.7386032789644472 1:6 2:14 3:0.884 4:0.9858 5:50 6:50 7:17.7704 8:14.7494 
0.7176600798994363 1:9 2:18 3:0.8026 4:0.8414 5:50 6:50 7:17.1044 8:14.777 
0.984048874868132 1:12 2:31 3:0.8692 4:0.9995 5:50 6:50 7:22.9089 8:21.9366 
0.0774278448495946 1:5 2:10 3:0.9637 4:0.9993 5:50 6:50 7:13.8467 8:11.9679 
0.8204800128886223 1:5 2:13 3:0.9736 4:0.9999 5:50 6:50 7:15.3323 8:14.6804 
0.2096995142814016 1:3 2:6 3:0.9853 4:0.9999 5:50 6:50 7:14.0165 8:13.3336 
1 1:7 2:17 3:0.8236 4:0.9837 5:38.9724 6:50 7:14.9811 8:10.4629 
0.7847606797090427 1:6 2:18 3:0.9958 4:0.9995 5:50 6:50 7:20.7974 8:20.7782 
0.3855312852958662 1:6 2:17 3:0.9899 4:0.9999 5:50 6:50 7:20.7481 8:20.7177 
0.984940589891844 1:11 2:29 3:0.7899 4:0.9519 5:50 6:50 7:20.1075 8:15.7485 
1 1:13 2:30 3:0.7042 4:0.9731 5:50 6:50 7:16.2358 8:11.5249 
0.7440027467904664 1:23 2:51 3:0.7352 4:0.9566 5:50 6:50 7:17.0092 8:14.9408 
0.1230397462839975 1:12 2:18 3:0.6348 4:0.6672 5:50 6:50 7:20.405 8:19.0162 
1 1:14 2:28 3:0.8646 4:0.9872 5:37.2492 6:50 7:16.6694 8:12.4359 
0.999412530082523 1:9 2:16 3:0.7682 4:0.905 5:50 6:50 7:14.5349 8:10.4202 
0.3135737598720458 1:11 2:27 3:0.8641 4:0.9908 5:50 6:50 7:21.3056 8:17.4479 
0.1868223812363318 1:4 2:6 3:0.9968 4:1 5:50 6:50 7:14.8531 8:14.2502 
0.2554230268000785 1:10 2:17 3:0.696 4:0.7423 5:50 6:50 7:20.5226 8:18.1385 
1 1:4 2:8 3:0.9876 4:0.9884 5:31.7078 6:50 7:9.3647 8:7.6415 
0.9989163837434727 1:14 2:18 3:0.7246 4:0.7834 5:50 6:50 7:20.0333 8:16.1211 
0.03893281092239487 1:9 2:16 3:0.9302 4:0.989 5:50 6:50 7:18.2948 8:16.6461 
0.358853126928521 1:8 2:22 3:0.9047 4:0.9996 5:50 6:50 7:22.3768 8:21.7199 
0.08926017326471657 1:3 2:5 3:0.9969 4:0.9994 5:50 6:50 7:10.1054 8:9.5118 
0.468533585244393 1:6 2:16 3:0.9446 4:0.9994 5:50 6:50 7:18.4522 8:17.4609 
0.9976838885059818 1:9 2:25 3:0.8555 4:0.998 5:50 6:50 7:22.733 8:21.6619 
0.4540938187616981 1:3 2:7 3:0.9963 4:0.9998 5:50 6:50 7:11.2413 8:10.7633 
0.7443158287462777 1:14 2:17 3:0.6928 4:0.7738 5:14.268 6:50 7:10.7623 8:8.513 
0.3671018779662966 1:4 2:9 3:0.9874 4:0.9999 5:50 6:50 7:13.6115 8:13.402 
0.5156285578319879 1:6 2:15 3:0.9252 4:0.9982 5:50 6:50 7:20.6674 8:19.8663 
0.5075450089568034 1:3 2:4 3:0.979 4:0.9998 5:50 6:50 7:10.1411 8:8.7125 
0.9788050996095569 1:7 2:15 3:0.8894 4:0.9914 5:50 6:50 7:12.8987 8:11.3608 
0.1282992600663737 1:5 2:12 3:0.967 4:0.9992 5:50 6:50 7:17.6244 8:15.5371 
1 1:4 2:6 3:0.9968 4:1 5:50 6:50 7:14.8531 8:14.2502 
0.2681595892424756 1:9 2:26 3:0.8186 4:0.9058 5:50 6:50 7:22.6604 8:22.2598 
0.142142004138599 1:4 2:9 3:0.9861 4:1 5:50 6:50 7:14.6745 8:13.4534 
0.565328852078362 1:11 2:18 3:0.7831 4:0.8118 5:50 6:50 7:20.5505 8:20.05 
0.1919845140370504 1:3 2:6 3:0.9946 4:1 5:50 6:50 7:13.5076 8:13.4243 
1 1:6 2:12 3:0.9233 4:0.9886 5:35.0967 6:50 7:16.6328 8:14.3616 
0.5830760773559286 1:5 2:12 3:0.9856 4:0.9998 5:50 6:50 7:18.4235 8:18.2707 
1 1:4 2:8 3:0.9862 4:0.9991 5:50 6:50 7:13.1054 8:12.8253 
0.9808088843014691 1:9 2:14 3:0.9257 4:0.9933 5:50 6:50 7:16.1724 8:14.8771 
1 1:11 2:20 3:0.837 4:0.9843 5:37.4793 6:50 7:17.248 8:12.3509 
0.9892571793914537 1:7 2:20 3:0.9549 4:0.9994 5:50 6:50 7:22.5477 8:21.8943 
0.9745590080910109 1:5 2:12 3:0.9313 4:0.9795 5:50 6:50 7:16.7812 8:11.3654 
0.9780124290829149 1:21 2:29 3:0.6726 4:0.7609 5:14.0897 6:50 7:5.3742 8:3.0407 
0.3372399874247068 1:4 2:10 3:0.9925 4:0.9996 5:50 6:50 7:15.668 8:15.4757 
0.3383547101146122 1:5 2:12 3:0.8711 4:0.9595 5:50 6:50 7:13.944 8:13.1356 
0.2843263386719863 1:13 2:17 3:0.6971 4:0.7409 5:50 6:50 7:20.5187 8:19.599 
0.9975859055136347 1:10 2:28 3:0.887 4:0.9926 5:50 6:50 7:20.4705 8:17.7809 
0.9941201850823584 1:13 2:32 3:0.7803 4:0.9548 5:50 6:50 7:24.2058 8:22.3854 
0.9909611400419647 1:8 2:24 3:0.9311 4:0.9961 5:50 6:50 7:21.6068 8:18.6558 
0.580378677856441 1:13 2:27 3:0.8157 4:0.9962 5:50 6:50 7:18.0915 8:15.4837 
0.2110582865916164 1:6 2:14 3:0.7501 4:0.8485 5:50 6:50 7:16.7117 8:14.0001 
0.7439323192518477 1:16 2:19 3:0.6447 4:0.6597 5:50 6:50 7:20.5313 8:19.3718 
0.5999735585791997 1:5 2:16 3:0.9975 4:0.9998 5:50 6:50 7:18.5029 8:18.489 
0.4438166300153476 1:7 2:15 3:0.7722 4:0.8743 5:50 6:50 7:18.4513 8:14.9897 
0.8153623274859028 1:4 2:4 3:0.9791 4:0.9904 5:50 6:50 7:10.424 8:7.8361 
0.7397284348385251 1:5 2:12 3:0.9045 4:0.9958 5:50 6:50 7:15.9147 8:12.4315 
0.5916878898370033 1:7 2:14 3:0.7848 4:0.8507 5:50 6:50 7:18.4384 8:15.4755 
0.3621013504701035 1:3 2:6 3:0.9916 4:0.9998 5:50 6:50 7:13.0333 8:12.7246 
0.1280566524626945 1:4 2:7 3:0.9955 4:0.9995 5:50 6:50 7:13.3785 8:13.1363 
0.4404585649151646 1:6 2:15 3:0.865 4:0.9949 5:50 6:50 7:17.5363 8:15.2066 
0.2779015559307203 1:10 2:18 3:0.7815 4:0.839 5:50 6:50 7:20.4473 8:18.0896 
0.9663264494426285 1:6 2:15 3:0.9071 4:0.9479 5:50 6:50 7:14.453 8:13.6418 
1 1:8 2:24 3:0.8722 4:0.8984 5:50 6:50 7:12.2567 8:6.5569 
1 1:6 2:18 3:0.885 4:0.9955 5:50 6:50 7:15.661 8:12.5119 
1 1:4 2:8 3:0.9802 4:0.9995 5:50 6:50 7:15.8289 8:14.5683 
0.3582261191914503 1:4 2:7 3:0.992 4:0.9998 5:50 6:50 7:14.0333 8:13.9881 
1 1:14 2:38 3:0.9402 4:0.9991 5:50 6:50 7:29.1196 8:28.7544 
0.9906980956241493 1:16 2:38 3:0.8423 4:0.9972 5:50 6:50 7:27.8131 8:26.0303 
0.1871571586186356 1:9 2:24 3:0.9707 4:0.9989 5:50 6:50 7:22.7177 8:22.1393 
0.9979876695784461 1:14 2:26 3:0.7583 4:0.905 5:30.5891 6:50 7:15.7113 8:7.6959 
0.9929389674907827 1:13 2:16 3:0.6349 4:0.7161 5:29.4776 6:50 7:20.1012 8:17.2128 
0.7958096196304416 1:7 2:17 3:0.774 4:0.8856 5:50 6:50 7:20.5239 8:18.7874 
0.5309706127692913 1:14 2:35 3:0.8195 4:0.9803 5:50 6:50 7:23.1424 8:20.3076 
1 1:3 2:5 3:0.9992 4:0.9999 5:50 6:50 7:14.0217 8:13.999 
0.7431173567339386 1:23 2:55 3:0.7302 4:0.9711 5:50 6:50 7:17.0092 8:14.8461 
0.9799223204966121 1:14 2:35 3:0.8195 4:0.9803 5:50 6:50 7:23.1424 8:20.3076 
0.7949760657652376 1:4 2:10 3:0.9836 4:0.9995 5:50 6:50 7:16.1434 8:14.8147 
1 1:16 2:19 3:0.6447 4:0.6597 5:50 6:50 7:20.5313 8:19.3718 
0.9964161947095604 1:12 2:28 3:0.7913 4:0.9603 5:50 6:50 7:19.8556 8:17.0239 
0.3698494298884587 1:4 2:7 3:0.9883 4:0.9994 5:50 6:50 7:12.8558 8:12.4144 
0.4547284728171777 1:7 2:20 3:0.9657 4:0.9999 5:50 6:50 7:20.4425 8:19.9033 
1 1:7 2:20 3:0.8947 4:0.9811 5:50 6:50 7:18.8951 8:16.2065 
0.2048731329103408 1:6 2:14 3:0.957 4:0.9998 5:50 6:50 7:17.4674 8:15.5371 
0.9994437726879704 1:10 2:11 3:0.6403 4:0.6574 5:50 6:50 7:16.8912 8:14.0435 
0.5267436808147894 1:4 2:7 3:0.9885 4:0.9998 5:50 6:50 7:10.8064 8:10.5248 
0.9919059505006028 1:13 2:27 3:0.8157 4:0.9962 5:50 6:50 7:18.0915 8:15.4837 
0.9214219557093761 1:5 2:6 3:0.9803 4:0.9989 5:50 6:50 7:14.0748 8:14.0433 
0.9545107705781605 1:11 2:30 3:0.8944 4:0.995 5:50 6:50 7:24.5618 8:23.119 
0.5390205724639142 1:7 2:16 3:0.8899 4:0.928 5:50 6:50 7:17.2186 8:16.0329 
0.9563686634075667 1:10 2:21 3:0.8945 4:0.9992 5:50 6:50 7:21.5124 8:17.7695 
0.9734826450308813 1:13 2:37 3:0.9143 4:0.9999 5:50 6:50 7:26.768 8:26.3713 
0.9935175342212359 1:8 2:16 3:0.8577 4:0.9677 5:50 6:50 7:17.4477 8:12.0565 
0.6133301466962193 1:12 2:30 3:0.8998 4:0.9994 5:50 6:50 7:24.2408 8:23.3418 
0.9916731176477525 1:9 2:13 3:0.962 4:0.9931 5:50 6:50 7:17.7437 8:15.8861 
0.999075498300262 1:11 2:13 3:0.8617 4:0.8617 5:50 6:50 7:17.518 8:13.5516 
0.02414741698746348 1:6 2:16 3:0.9283 4:0.9982 5:50 6:50 7:20.3681 8:20.0541 
1 1:14 2:17 3:0.6928 4:0.7738 5:14.268 6:50 7:10.7623 8:8.513 
0.2064025389547013 1:6 2:15 3:0.8648 4:0.9919 5:50 6:50 7:15.1595 8:14.1931 
1 1:14 2:25 3:0.8032 4:0.981 5:37.7363 6:50 7:19.0803 8:11.8785 
0.1071606877211866 1:6 2:19 3:0.9928 4:0.9999 5:50 6:50 7:18.5254 8:18.5051 
0.7440096595004433 1:13 2:38 3:0.8694 4:0.9977 5:50 6:50 7:25.4126 8:22.4642 
0.7947046110482438 1:8 2:24 3:0.9676 4:0.9999 5:50 6:50 7:22.9182 8:22.8421 
1 1:13 2:17 3:0.6971 4:0.7409 5:50 6:50 7:20.5187 8:19.599 
0.5493513620994476 1:6 2:16 3:0.9586 4:0.9989 5:50 6:50 7:18.1842 8:16.1814 
0.07590944878639311 1:6 2:16 3:0.9463 4:0.9994 5:50 6:50 7:18.0918 8:17.6325 
0.9542416318967182 1:3 2:5 3:0.9624 4:0.9985 5:50 6:50 7:10.5676 8:7.3618 
1 1:8 2:23 3:0.9059 4:0.999 5:50 6:50 7:22.546 8:21.7412 
0.991266651492752 1:12 2:26 3:0.8299 4:0.965 5:50 6:50 7:18.9288 8:15.5476 
1 1:11 2:27 3:0.8641 4:0.9908 5:50 6:50 7:21.3056 8:17.4479 
0.9972784495553775 1:17 2:35 3:0.75 4:0.8946 5:50 6:50 7:24.0307 8:17.393 
1 1:23 2:55 3:0.7302 4:0.9711 5:50 6:50 7:17.0092 8:14.8461 
0.708644825010781 1:4 2:8 3:0.9979 4:0.9999 5:50 6:50 7:15.8023 8:15.5105 
0.197483515153136 1:6 2:15 3:0.9175 4:0.9979 5:50 6:50 7:17.3563 8:14.7161 
0.06798953542218918 1:6 2:15 3:0.9538 4:0.9883 5:50 6:50 7:16.2966 8:16.277 
0.07081798282543346 1:4 2:12 3:0.8979 4:0.9036 5:50 6:50 7:16.2505 8:16.2134 
0.4406583742588178 1:7 2:16 3:0.8577 4:0.8577 5:50 6:50 7:19.2072 8:14.4122 
1 1:16 2:31 3:0.7895 4:0.9621 5:50 6:50 7:19.9216 8:13.7164 
0.4073438922296017 1:5 2:10 3:0.9882 4:0.9994 5:50 6:50 7:14.4608 8:12.5391 
0.5204376618781108 1:7 2:17 3:0.9518 4:0.9977 5:50 6:50 7:17.7685 8:17.4394 
1 1:13 2:27 3:0.7808 4:0.9395 5:50 6:50 7:13.4996 8:7.3822 
0.6927543493895394 1:6 2:17 3:0.9288 4:0.9994 5:50 6:50 7:19.5075 8:17.4324 
0.7439778937105955 1:12 2:24 3:0.6706 4:0.975 5:32.2308 6:50 7:11.1992 8:6.3504 
0.9850913275003812 1:6 2:11 3:0.712 4:0.7727 5:50 6:50 7:11.5328 8:8.9023 
0.9728121538674582 1:12 2:18 3:0.6348 4:0.6672 5:50 6:50 7:20.405 8:19.0162 
0.247498816226307 1:5 2:11 3:0.9745 4:0.9981 5:50 6:50 7:12.0873 8:11.2372 
1 1:12 2:24 3:0.6706 4:0.975 5:32.2308 6:50 7:11.1992 8:6.3504 
0.9838787778962438 1:7 2:16 3:0.8577 4:0.8577 5:50 6:50 7:19.2072 8:14.4122 
1 1:6 2:14 3:0.9105 4:0.9744 5:50 6:50 7:10.6317 8:9.1227 
1 1:23 2:51 3:0.7352 4:0.9566 5:50 6:50 7:17.0092 8:14.9408 
1 1:11 2:20 3:0.8171 4:0.9882 5:37.271 6:50 7:14.9715 8:12.3946 
0.6971039723819708 1:6 2:18 3:0.865 4:0.9631 5:50 6:50 7:20.0976 8:18.2522 
0.9074587217493263 1:11 2:31 3:0.8574 4:0.9691 5:50 6:50 7:23.2006 8:22.4872 
0.9639001024635558 1:10 2:17 3:0.696 4:0.7423 5:50 6:50 7:20.5226 8:18.1385 
1 1:13 2:38 3:0.8694 4:0.9977 5:50 6:50 7:25.4126 8:22.4642 
1 1:22 2:38 3:0.6842 4:0.9399 5:37.0461 6:50 7:14.2573 8:9.4877 
0.9793882017003912 1:10 2:26 3:0.9497 4:0.9999 5:50 6:50 7:24.6852 8:23.803 
0.999376758107683 1:13 2:21 3:0.8583 4:0.975 5:41.5895 6:50 7:16.7039 8:12.002 
-0.1874300495165369 1:9 2:12 3:0.6997 4:0.7642 5:13.1626 6:50 7:5.4083 8:4.3957 
-0.1392227065508955 1:11 2:11 3:0.7376 4:0.8616 5:13.7417 6:50 7:2.7806 8:1.4754 
-0.2463693640516638 1:19 2:30 3:0.6409 4:0.8705 5:11.3843 6:50 7:5.9797 8:2.4205 
-0.0466191921433393 1:10 2:11 3:0.785 4:0.7906 5:9.6247 6:50 7:2.5996 8:2.2005 
-0.05486064462614081 1:10 2:11 3:0.5552 4:0.7505 5:6.1391 6:50 7:5.3264 8:2.9161 
-0.05227392236637696 1:5 2:7 3:0.6501 4:0.8208 5:8.8735 6:50 7:4.6136 8:3.5726 
-0.2051617468071608 1:18 2:18 3:0.768 4:0.812 5:9.7813 6:50 7:3.7843 8:3.091 
-0.06881111908569705 1:5 2:6 3:0.6183 4:0.8073 5:5.7011 6:50 7:2.0549 8:1.3286 
-0.04897058628500436 1:8 2:9 3:0.5616 4:0.6128 5:10.9997 6:50 7:1.881 8:1.2541 
-0.1570414192434451 1:8 2:9 3:0.8813 4:0.8813 5:7.127 6:50 7:7.0487 8:3.5499 
-0.1421611595092641 1:10 2:11 3:0.7125 4:0.8594 5:6.7248 6:18.4014 7:3.2339 8:1.6998 
-0.091834477908845 1:5 2:6 3:0.7273 4:0.833 5:50 6:50 7:2.8336 8:2.5504 
-0.2559223286290569 1:6 2:6 3:0.7154 4:0.7154 5:24.47 6:50 7:8.53 8:7.7708 
-0.2388722375877155 1:22 2:22 3:0.6566 4:0.6609 5:7.5585 6:50 7:6.2516 8:3.4494 
-0.1892941108079528 1:14 2:17 3:0.7379 4:0.8301 5:11.5773 6:50 7:1.9971 8:1.0774 
-0.2174089332904033 1:15 2:20 3:0.7325 4:0.8366 5:7.6845 6:50 7:6.8148 8:4.2127 
-0.1902571241201969 1:13 2:15 3:0.7435 4:0.7842 5:12.6931 6:50 7:5.6844 8:5.0128 
-0.07143331885876274 1:7 2:9 3:0.609 4:0.7603 5:9.9102 6:50 7:5.6714 8:3.0407 
-0.1596566038794754 1:7 2:9 3:0.7749 4:0.7749 5:6.1741 6:50 7:1 8:0.3492 
-0.2264609888201126 1:8 2:8 3:0.7261 4:0.7765 5:5.9755 6:15.5753 7:6.1111 8:3.5598 
-0.1516232443382747 1:8 2:11 3:0.7979 4:0.8009 5:9.7664 6:50 7:1.2848 8:1.1221 
-0.2194644335606768 1:6 2:7 3:0.6565 4:0.8155 5:8.8693 6:50 7:6.5836 8:6.2393 
-0.2535640753605283 1:15 2:16 3:0.8039 4:0.8459 5:11.2477 6:50 7:12.6514 8:8.0374 
-0.253398564382558 1:10 2:17 3:0.7838 4:0.9307 5:50 6:50 7:10.86 8:4.2649 
-0.2274141406633912 1:19 2:27 3:0.5749 4:0.7393 5:8.9305 6:50 7:6.629 8:2.6434 
-0.07936998671296749 1:10 2:14 3:0.7169 4:0.9493 5:8.8999 6:50 7:3.1249 8:1.3745 
-0.08923537602656922 1:6 2:8 3:0.6265 4:0.6829 5:12.9931 6:50 7:2.206 8:1.3215 
-0.2557405247906617 1:13 2:14 3:0.6816 4:0.7688 5:16.3855 6:28.4847 7:5.2588 8:4.2995 
-0.2489061957034283 1:19 2:31 3:0.5308 4:0.6025 5:10.9295 6:50 7:3.4537 8:2.2736 
-0.02463968594590922 1:5 2:8 3:0.777 4:0.9761 5:10.7274 6:50 7:3.5863 8:2.2813 
-0.1777679783803628 1:5 2:8 3:0.7432 4:0.8164 5:10.1521 6:50 7:1.4619 8:0.9893 
-0.255681734045431 1:17 2:27 3:0.5528 4:0.7088 5:2.9314 6:23.3702 7:1.8409 8:1.4998 
-0.2424185178206488 1:9 2:9 3:0.7851 4:0.7851 5:7.7313 6:50 7:9.4775 8:5.4599 
-0.2115375341547164 1:16 2:18 3:0.563 4:0.6347 5:12.0096 6:50 7:1.6372 8:1.6332 
-0.1444157838958587 1:4 2:5 3:0.6279 4:0.7651 5:50 6:50 7:5.7231 8:4.7716 
-0.1522864080338686 1:8 2:9 3:0.6817 4:0.6945 5:10.106 6:50 7:1 8:0.3819 
-0.06678829237174694 1:6 2:6 3:0.653 4:0.7877 5:11.1327 6:50 7:1 8:0.6137 
-0.1714097269710828 1:3 2:5 3:0.8177 4:0.9659 5:12.2165 6:50 7:5.2461 8:2.6799 
-0.1476482362201405 1:6 2:9 3:0.8271 4:0.844 5:12.133 6:50 7:3.7303 8:2.6786 
-1 1:3 2:5 3:0.8742 4:0.9525 5:50 6:50 7:10.6031 8:8.6267 
-0.05807974093316398 1:6 2:8 3:0.7505 4:0.8955 5:10.847 6:50 7:4.7983 8:2.9348 
-0.1284368483664143 1:4 2:6 3:0.8295 4:0.8295 5:9.127 6:50 7:1.6378 8:1.353 
-0.1500004870901695 1:12 2:12 3:0.6149 4:0.6354 5:9.7778 6:50 7:6.3956 8:3.951 
-0.1570502380403307 1:6 2:7 3:0.5408 4:0.5847 5:8.2701 6:17.7661 7:1.6354 8:1.3153 
-0.299601744789958 1:10 2:13 3:0.6581 4:0.8169 5:50 6:50 7:13.1974 8:9.8049 
-0.1278921644889104 1:11 2:12 3:0.6731 4:0.7431 5:4.947 6:50 7:3.7598 8:2.1172 
-0.2019802568485916 1:9 2:14 3:0.6039 4:0.8699 5:12.9124 6:50 7:4.6434 8:2.5916 
-0.1529080010431692 1:4 2:6 3:0.652 4:0.8568 5:10.4857 6:50 7:4.1056 8:1.7409 
-0.1108918573316986 1:6 2:8 3:0.577 4:0.8825 5:7.2249 6:50 7:1 8:0.548 
-0.06370228631062368 1:10 2:12 3:0.6804 4:0.7191 5:10.9281 6:50 7:5.1793 8:3.9368 
-0.2376816927184627 1:11 2:14 3:0.8536 4:0.9123 5:12.9651 6:50 7:11.1686 8:7.0016 
-0.1077875964273426 1:5 2:7 3:0.7349 4:0.884 5:7.6883 6:50 7:1.7829 8:1.1603 
-0.002115665782405456 1:5 2:6 3:0.7663 4:0.9682 5:7.4331 6:50 7:2.3687 8:1.1119 
-0.1540172265934442 1:3 2:3 3:0.7959 4:0.7959 5:8.1894 6:50 7:1 8:0.3376 
-0.02541605512340621 1:5 2:6 3:0.7372 4:0.8775 5:8.726 6:50 7:5.4461 8:2.3752 
-0.1392083491572211 1:8 2:9 3:0.8016 4:0.8624 5:7.2455 6:50 7:7.0159 8:5.2046 
-0.02432239525158719 1:11 2:12 3:0.6668 4:0.7857 5:10.6347 6:50 7:5.0864 8:3.1839 
-0.1124943744054026 1:13 2:17 3:0.7983 4:0.9352 5:9.7889 6:50 7:3.487 8:2.1208 
-0.2556531371910906 1:26 2:26 3:0.5398 4:0.5806 5:5.8942 6:14.6983 7:4.5275 8:3.0424 
-0.02017236625430707 1:12 2:14 3:0.6431 4:0.7274 5:7.4856 6:50 7:3.456 8:1.787 
-0.212807008640646 1:11 2:13 3:0.5782 4:0.7719 5:6.5393 6:21.66 7:3.8867 8:3.8809 
-0.1064384233535801 1:7 2:11 3:0.7136 4:0.7968 5:9.5656 6:50 7:4.7222 8:2.651 
-0.03341757387574446 1:4 2:4 3:0.6972 4:0.8515 5:14.6711 6:50 7:2.2328 8:1.882 
-0.09238135914080076 1:13 2:14 3:0.6972 4:0.7962 5:9.4517 6:50 7:3.5848 8:2.1679 
-0.203272294681656 1:9 2:9 3:0.5895 4:0.6363 5:11.4111 6:50 7:6.3555 8:5.1359 
-0.1920578444420757 1:13 2:14 3:0.7376 4:0.9006 5:17.4958 6:50 7:3.5245 8:2.685 
-0.1446464054236914 1:4 2:7 3:0.7762 4:0.7762 5:12.1081 6:50 7:6.1607 8:2.8966 
-0.2557083231562562 1:18 2:25 3:0.8097 4:0.8266 5:11.9371 6:25.0227 7:1.2381 8:0.651 
-0.2435435730678987 1:14 2:15 3:0.5604 4:0.6117 5:19.0293 6:50 7:2.6246 8:2.4109 
-0.2557834840132269 1:17 2:30 3:0.7256 4:0.7329 5:8.5884 6:32.9262 7:1.3447 8:0.7939 
-0.2025984346605622 1:2 2:3 3:0.9477 4:0.9477 5:8.8908 6:50 7:2.0365 8:0.8669 
-0.2542172409642911 1:9 2:11 3:0.6768 4:0.7549 5:13.0295 6:29.9753 7:4.3787 8:3.0199 
-1 1:7 2:15 3:0.8263 4:0.9455 5:50 6:50 7:13.9312 8:9.6498 
-0.01970802860553422 1:3 2:4 3:0.9046 4:0.9046 5:7.4083 6:50 7:5.0329 8:3.0823 
-0.1596125435452173 1:6 2:11 3:0.6029 4:0.6401 5:11.0045 6:50 7:6.6286 8:3.1873 
-0.002202743665403739 1:7 2:9 3:0.5798 4:0.6581 5:50 6:50 7:2.2118 8:1.4734 
-0.1014055938934645 1:5 2:6 3:0.6175 4:0.6994 5:3.5847 6:50 7:1.6167 8:0.833 
-0.1953435032003532 1:11 2:14 3:0.7884 4:0.9044 5:7.4611 6:19.6282 7:3.6141 8:3.1842 
-0.1712653956664902 1:11 2:14 3:0.6524 4:0.8461 5:20.1444 6:50 7:8.2178 8:4.5195 
-0.2478966359688444 1:6 2:9 3:0.9237 4:0.9744 5:19.5432 6:50 7:10.0534 8:4.8517 
-0.0526676893820045 1:6 2:6 3:0.6915 4:0.7183 5:6.3226 6:50 7:4.2045 8:2.1997 
-0.144074289349354 1:5 2:7 3:0.5947 4:0.5947 5:10.4142 6:50 7:5.0032 8:4.1288 
-0.0741723677023009 1:10 2:12 3:0.7603 4:0.7603 5:12.4763 6:50 7:3.0919 8:2.3381 
-0.07204558982761856 1:5 2:5 3:0.6197 4:0.6759 5:3.8849 6:50 7:2.676 8:1.6636 
-0.2109132317194813 1:12 2:17 3:0.5444 4:0.5872 5:5.1641 6:18.5117 7:2.0982 8:1.5097 
-0.1766061214784179 1:20 2:26 3:0.5943 4:0.6844 5:10.3429 6:50 7:4.2538 8:2.1677 
-0.08053999305235771 1:6 2:7 3:0.6249 4:0.6657 5:5.5899 6:50 7:1 8:0.6024 
-0.05353328682332411 1:10 2:11 3:0.9034 4:0.9068 5:13.1909 6:50 7:1.8629 8:1.4437 
-0.0543436274021696 1:7 2:7 3:0.6964 4:0.7431 5:8.6816 6:50 7:2.0029 8:1.8548 
-0.03824195745289166 1:3 2:4 3:0.7191 4:0.7895 5:10.6867 6:50 7:4.3555 8:2.3703 
-0.1378435554995517 1:11 2:12 3:0.5431 4:0.6457 5:13.0973 6:50 7:1.3902 8:0.7908 
-0.1121315451942102 1:10 2:14 3:0.7272 4:0.8374 5:7.7921 6:50 7:2.7742 8:1.9901 
-0.09031609968190586 1:7 2:9 3:0.7209 4:0.7967 5:6.392 6:50 7:5.7971 8:2.4727 
-0.01842740669468967 1:9 2:11 3:0.7951 4:0.8537 5:6.751 6:50 7:4.1695 8:2.6948 
-0.1886956580529776 1:6 2:10 3:0.6577 4:0.9299 5:50 6:50 7:3.2435 8:2.9225 
-0.04380606515770247 1:4 2:5 3:0.7081 4:0.8732 5:5.7243 6:50 7:2.7776 8:2.4086 
-0.1040431094456607 1:13 2:15 3:0.5639 4:0.6697 5:6.8889 6:50 7:2.2481 8:2.1241 
-0.2537653705451294 1:7 2:8 3:0.6528 4:0.765 5:15.4155 6:50 7:9.4903 8:4.5278 
-0.2552915113002324 1:25 2:31 3:0.634 4:0.6808 5:6.9764 6:19.4014 7:4.8405 8:2.5989 
-0.1009977351713643 1:6 2:7 3:0.7356 4:0.7743 5:10.8512 6:50 7:1 8:0.5459 
-0.2121038058916133 1:12 2:13 3:0.7061 4:0.7126 5:11.5713 6:50 7:10.1903 8:6.3199 
-0.2552761852935376 1:17 2:17 3:0.5346 4:0.705 5:9.2758 6:25.9251 7:1.6408 8:1.2181 
-0.2215541698185803 1:9 2:12 3:0.805 4:0.8981 5:16.8872 6:50 7:2.4839 8:1.6978 
-0.135934734236605 1:5 2:6 3:0.7613 4:0.892 5:6.0557 6:50 7:7.9886 8:3.9068 
-0.2095774115805617 1:5 2:7 3:0.8763 4:0.9193 5:3.4635 6:50 7:2.6875 8:1.519 
-0.2262946879008566 1:14 2:19 3:0.6201 4:0.7463 5:16.0657 6:50 7:5.8206 8:2.677 
-0.180918630139523 1:17 2:17 3:0.6316 4:0.6826 5:9.2099 6:50 7:4.7383 8:3.0404 
-0.1927001581575937 1:12 2:14 3:0.5865 4:0.6427 5:7.1207 6:19.6879 7:5.0142 8:3.1639 
-0.0833633067910896 1:4 2:4 3:0.6094 4:0.6094 5:9.5786 6:50 7:3.8413 8:2.0796 
-0.2288513041677161 1:2 2:3 3:0.5705 4:0.8114 5:15.0802 6:50 7:5.6062 8:3.6709 
-0.03427377877712799 1:8 2:11 3:0.7057 4:0.8209 5:10.1568 6:50 7:2.915 8:1.9884 
-0.1412928653665892 1:8 2:12 3:0.7781 4:0.8806 5:5.6771 6:50 7:1.908 8:1.4021 
-0.1322671907147731 1:6 2:9 3:0.778 4:0.8992 5:12.7398 6:50 7:8.6492 8:3.9908 
-0.1883100635985679 1:14 2:14 3:0.5417 4:0.6823 5:12.5906 6:25.9551 7:4.4686 8:4.0386 
-0.0879251877559441 1:3 2:4 3:0.7935 4:0.9055 5:50 6:50 7:6.2866 8:2.6503 
-0.1203529040609683 1:10 2:10 3:0.5949 4:0.6116 5:6.2454 6:50 7:4.1026 8:2.3036 
-0.2537373936437242 1:23 2:24 3:0.5948 4:0.5948 5:5.9058 6:12.5175 7:1.5794 8:1.4262 
-0.09166353962353178 1:4 2:6 3:0.6476 4:0.6862 5:6.9006 6:50 7:3.2177 8:1.6457 
-0.244452821175958 1:20 2:33 3:0.598 4:0.8419 5:22.1948 6:50 7:5.0426 8:2.1482 
-0.1808147786495065 1:6 2:7 3:0.7639 4:0.8619 5:12.233 6:50 7:5.865 8:1.6703 
-0.1348344109726591 1:9 2:12 3:0.6461 4:0.868 5:11.5315 6:50 7:7.4043 8:3.9038 
-0.1297967294250311 1:4 2:7 3:0.9728 4:0.9728 5:11.104 6:50 7:6.5596 8:3.3079 
-0.1492692760581224 1:8 2:12 3:0.5557 4:0.746 5:5.5945 6:50 7:2.9521 8:1.5715 
-0.2586492579652555 1:20 2:35 3:0.6319 4:0.9346 5:19.469 6:50 7:12.036 8:4.7589 
-0.2511351603958736 1:11 2:23 3:0.7975 4:0.925 5:14.1697 6:50 7:5.9937 8:2.5874 
-0.1642601910991786 1:3 2:3 3:0.6594 4:0.6594 5:4.149 6:50 7:3.6585 8:2.7001 
-0.2442730964526689 1:9 2:9 3:0.6344 4:0.713 5:10.453 6:22.7166 7:4.0008 8:3.5226 
-0.2554445905870183 1:9 2:10 3:0.7918 4:0.7918 5:2.44 6:8.8258 7:6.3004 8:5.848 
-0.2138542055596114 1:12 2:15 3:0.721 4:0.721 5:8.1979 6:50 7:7.7201 8:4.0672 
-0.1439547288944577 1:10 2:12 3:0.654 4:0.753 5:4.0588 6:50 7:2.3822 8:2.0247 
-0.01175366213047952 1:9 2:12 3:0.7567 4:0.8453 5:10.7392 6:50 7:3.0849 8:1.8406 
-0.04676526912040823 1:9 2:12 3:0.6285 4:0.8591 5:50 6:50 7:4.6945 8:2.0866 
-0.1601031003181355 1:10 2:16 3:0.7191 4:0.8648 5:13.2904 6:50 7:2.5293 8:1.7445 
-0.2461293028453895 1:6 2:9 3:0.7846 4:0.8695 5:4.0605 6:50 7:6.847 8:2.7381 
-1 1:3 2:4 3:0.8373 4:0.8373 5:50 6:50 7:11.7561 8:10.4383 
-0.006196083433451562 1:5 2:6 3:0.6248 4:0.8158 5:50 6:50 7:5.3601 8:3.1916 
-0.1856219771452904 1:10 2:15 3:0.5619 4:0.6601 5:6.0981 6:50 7:4.9111 8:3.482 
-0.25401221476286 1:19 2:19 3:0.643 4:0.6871 5:7.2165 6:21.6728 7:3.8566 8:2.6464 
-0.1498939141000014 1:13 2:16 3:0.7649 4:0.9005 5:14.1744 6:50 7:5.1938 8:3.4946 
-0.1390782257560219 1:10 2:12 3:0.5807 4:0.7006 5:11.2196 6:50 7:4.0949 8:3.7688 
-0.2528590566946037 1:17 2:17 3:0.6713 4:0.7392 5:6.0846 6:14.7102 7:1 8:0.3227 
-0.06657416290835634 1:7 2:7 3:0.6252 4:0.6875 5:5.4912 6:50 7:4.8825 8:2.9862 
-0.07203338387080537 1:8 2:8 3:0.8202 4:0.8632 5:9.4179 6:50 7:2.0177 8:1.4704 
-0.08820015967818234 1:10 2:12 3:0.721 4:0.8792 5:10.9552 6:50 7:7.6758 8:3.3096 
-0.2532598873957561 1:7 2:13 3:0.7778 4:0.9327 5:50 6:50 7:9.5099 8:6.3654 
-0.1261882762489882 1:10 2:11 3:0.5733 4:0.606 5:5.0173 6:14.2184 7:3.5546 8:2.2667 
-0.2026110230537139 1:6 2:9 3:0.7655 4:0.9082 5:9.8606 6:50 7:8.572 8:4.3614 
-0.25821487483119 1:6 2:7 3:0.8592 4:0.894 5:39.7221 6:50 7:8.6813 8:5.9816 
-0.1811360696355004 1:10 2:10 3:0.5462 4:0.5525 5:8.4533 6:21.5468 7:1.6868 8:1.2763 
-0.227989648510248 1:6 2:9 3:0.909 4:0.943 5:50 6:50 7:9.7568 8:4.5021 
-0.2097896200765709 1:19 2:19 3:0.6615 4:0.6851 5:11.2617 6:50 7:6.8513 8:4.7348 
-0.1950819773898151 1:11 2:16 3:0.6414 4:0.7915 5:9.9539 6:50 7:1 8:0.6376 
-0.08086738618242174 1:5 2:6 3:0.8324 4:0.8382 5:8.0954 6:50 7:5.6528 8:2.8087 
-0.1423911910974674 1:5 2:7 3:0.812 4:0.8417 5:6.4598 6:50 7:4.9562 8:2.1378 
-0.2533794128575342 1:11 2:12 3:0.7513 4:0.7668 5:4.5679 6:50 7:9.3522 8:6.0129 
-0.1625785628758721 1:9 2:13 3:0.723 4:0.7917 5:6.3506 6:50 7:2.7548 8:1.2498 
-0.05446846479091325 1:4 2:5 3:0.7742 4:0.7853 5:5.7133 6:50 7:1.2185 8:0.6128 
-0.0005164994855840779 1:5 2:5 3:0.572 4:0.5848 5:9.3448 6:50 7:4.0578 8:3.1224 
-0.1034561937215967 1:9 2:11 3:0.7186 4:0.7922 5:12.9566 6:50 7:5.6685 8:3.2023 
